{"learner":{"attributes":{"scikit_learn":"{\"n_estimators\": 100, \"objective\": \"reg:squarederror\", \"max_depth\": 3, \"learning_rate\": null, \"verbosity\": null, \"booster\": null, \"tree_method\": null, \"gamma\": 0.3, \"min_child_weight\": 3, \"max_delta_step\": null, \"subsample\": 1.0, \"colsample_bytree\": 1.0, \"colsample_bylevel\": null, \"colsample_bynode\": null, \"reg_alpha\": null, \"reg_lambda\": 3, \"scale_pos_weight\": null, \"base_score\": null, \"missing\": NaN, \"num_parallel_tree\": null, \"kwargs\": {\"nthread\": -1}, \"random_state\": null, \"n_jobs\": null, \"monotone_constraints\": null, \"interaction_constraints\": null, \"importance_type\": \"gain\", \"gpu_id\": null, \"validate_parameters\": null, \"n_features_in_\": 11, \"type\": \"XGBRegressor\"}"},"gradient_booster":{"model":{"gbtree_model_param":{"num_trees":"100","size_leaf_vector":"0"},"tree_info":[0,0,0,0,0,0,0,0,0,0,0,0,0,0,0,0,0,0,0,0,0,0,0,0,0,0,0,0,0,0,0,0,0,0,0,0,0,0,0,0,0,0,0,0,0,0,0,0,0,0,0,0,0,0,0,0,0,0,0,0,0,0,0,0,0,0,0,0,0,0,0,0,0,0,0,0,0,0,0,0,0,0,0,0,0,0,0,0,0,0,0,0,0,0,0,0,0,0,0,0],"trees":[{"base_weights":[2.781834E1,6.206851E0,1.91015E2,3.7718022E-1,6.0155407E1,1.32E2,2.57125E2,-4.3429002E-1,1.8862068E1,3.5596153E1,6.913725E1],"categories":[],"categories_nodes":[],"categories_segments":[],"categories_sizes":[],"default_left":[true,true,true,true,true,false,false,false,false,false,false],"id":0,"left_children":[1,3,5,7,9,-1,-1,-1,-1,-1,-1],"loss_changes":[3.0154892E6,2.3863919E5,2.8832675E5,1.0344532E4,8.940406E3,0E0,0E0,0E0,0E0,0E0,0E0],"parents":[2147483647,0,0,1,1,2,2,3,3,4,4],"right_children":[2,4,6,8,10,-1,-1,-1,-1,-1,-1],"split_conditions":[1.1E2,3.3888885E1,2.1833334E2,1.1111111E1,5.888889E1,3.9600002E1,7.7137505E1,-1.30287E-1,5.658621E0,1.0678846E1,2.0741177E1],"split_indices":[9,9,9,9,9,0,0,0,0,0,0],"split_type":[0,0,0,0,0,0,0,0,0,0,0],"sum_hessian":[8.53E2,7.56E2,9.7E1,6.85E2,7.1E1,5.6E1,4.1E1,6.59E2,2.6E1,2.3E1,4.8E1],"tree_param":{"num_deleted":"0","num_feature":"11","num_nodes":"11","size_leaf_vector":"0"}},{"base_weights":[2.0011456E1,6.139339E0,1.5434077E2,6.441598E-1,5.219611E1,1.1651839E2,2.0572624E2,-2.5102544E-1,1.7648619E1,3.7793045E1,6.295759E1],"categories":[],"categories_nodes":[],"categories_segments":[],"categories_sizes":[],"default_left":[true,true,true,true,true,false,false,false,false,false,false],"id":1,"left_children":[1,3,5,7,9,-1,-1,-1,-1,-1,-1],"loss_changes":[1.5922551E6,1.970564E5,8.3569125E4,1.0653567E4,5.726797E3,0E0,0E0,0E0,0E0,0E0,0E0],"parents":[2147483647,0,0,1,1,2,2,3,3,4,4],"right_children":[2,4,6,8,10,-1,-1,-1,-1,-1,-1],"split_conditions":[1.3555554E2,4.111111E1,2.661111E2,1.611111E1,8.1666664E1,3.4955517E1,6.1717876E1,-7.530764E-2,5.2945857E0,1.13379135E1,1.8887278E1],"split_indices":[9,9,9,9,9,0,0,0,0,0,0],"split_type":[0,0,0,0,0,0,0,0,0,0,0],"sum_hessian":[8.53E2,7.76E2,7.7E1,6.96E2,8E1,5E1,2.7E1,6.64E2,3.2E1,4E1,4E1],"tree_param":{"num_deleted":"0","num_feature":"11","num_nodes":"11","size_leaf_vector":"0"}},{"base_weights":[1.447105E1,4.7548943E0,1.1545842E2,5.17563E-1,3.9128204E1,8.98998E1,1.6151706E2,-2.5670353E-1,1.2096272E1,2.4191963E1,4.4390976E1],"categories":[],"categories_nodes":[],"categories_segments":[],"categories_sizes":[],"default_left":[true,true,true,true,true,false,false,false,false,false,false],"id":2,"left_children":[1,3,5,7,9,-1,-1,-1,-1,-1,-1],"loss_changes":[8.3826794E5,1.1412972E5,4.4728562E4,6.2937856E3,3.5384062E3,0E0,0E0,0E0,0E0,0E0,0E0],"parents":[2147483647,0,0,1,1,2,2,3,3,4,4],"right_children":[2,4,6,8,10,-1,-1,-1,-1,-1,-1],"split_conditions":[1.4888889E2,4.5555557E1,2.9555554E2,8.333333E0,7.277778E1,2.6969942E1,4.845512E1,-7.701106E-2,3.628882E0,7.2575893E0,1.3317293E1],"split_indices":[9,9,9,9,9,0,0,0,0,0,0],"split_type":[0,0,0,0,0,0,0,0,0,0,0],"sum_hessian":[8.53E2,7.81E2,7.2E1,6.98E2,8.3E1,5.2E1,2E1,6.57E2,4.1E1,2.6E1,5.7E1],"tree_param":{"num_deleted":"0","num_feature":"11","num_nodes":"11","size_leaf_vector":"0"}},{"base_weights":[1.0478631E1,3.8697882E0,9.072456E1,3.9579692E-1,2.941855E1,7.33706E1,1.3822032E2,-1.320625E-1,1.0466609E1,2.0014637E1,3.5737804E1],"categories":[],"categories_nodes":[],"categories_segments":[],"categories_sizes":[],"default_left":[true,true,true,true,true,false,false,false,false,false,false],"id":3,"left_children":[1,3,5,7,9,-1,-1,-1,-1,-1,-1],"loss_changes":[4.5291166E5,7.043747E4,2.3151625E4,3.73596E3,3.4996094E3,0E0,0E0,0E0,0E0,0E0,0E0],"parents":[2147483647,0,0,1,1,2,2,3,3,4,4],"right_children":[2,4,6,8,10,-1,-1,-1,-1,-1,-1],"split_conditions":[1.6666666E2,4.888889E1,3.261111E2,2.2222221E1,9E1,2.201118E1,4.14661E1,-3.961875E-2,3.139983E0,6.004391E0,1.0721342E1],"split_indices":[9,9,9,9,9,0,0,0,0,0,0],"split_type":[0,0,0,0,0,0,0,0,0,0,0],"sum_hessian":[8.53E2,7.91E2,6.2E1,6.99E2,9.2E1,5.1E1,1.1E1,6.67E2,3.2E1,4.2E1,5E1],"tree_param":{"num_deleted":"0","num_feature":"11","num_nodes":"11","size_leaf_vector":"0"}},{"base_weights":[7.6269927E0,2.9538465E0,6.947638E1,1.3291527E-1,2.0619509E1,5.6015297E1,1.14162476E2,-1.6781622E-1,5.181149E0,1.3895099E1,2.6140709E1],"categories":[],"categories_nodes":[],"categories_segments":[],"categories_sizes":[],"default_left":[true,true,true,true,true,false,false,false,false,false,false],"id":4,"left_children":[1,3,5,7,9,-1,-1,-1,-1,-1,-1],"loss_changes":[2.4679505E5,3.980884E4,1.6906875E4,1.0531771E3,2.9942617E3,0E0,0E0,0E0,0E0,0E0,0E0],"parents":[2147483647,0,0,1,1,2,2,3,3,4,4],"right_children":[2,4,6,8,10,-1,-1,-1,-1,-1,-1],"split_conditions":[1.7722223E2,3.722222E1,3.4722223E2,3.3333335E0,9.3888885E1,1.680459E1,3.4248745E1,-5.034487E-2,1.5543448E0,4.16853E0,7.842213E0],"split_indices":[9,9,9,9,9,0,0,0,0,0,0],"split_type":[0,0,0,0,0,0,0,0,0,0,0],"sum_hessian":[8.53E2,7.96E2,5.7E1,6.89E2,1.07E2,4.9E1,8E0,6.53E2,3.6E1,5.3E1,5.4E1],"tree_param":{"num_deleted":"0","num_feature":"11","num_nodes":"11","size_leaf_vector":"0"}},{"base_weights":[5.5651846E0,2.220754E0,5.3223793E1,3.4979862E-1,1.7031218E1,4.263057E1,1.0079667E2,-5.8580313E-2,6.7454906E0,1.1929858E1,1.910499E1],"categories":[],"categories_nodes":[],"categories_segments":[],"categories_sizes":[],"default_left":[true,true,true,true,true,false,false,false,false,false,false],"id":5,"left_children":[1,3,5,7,9,-1,-1,-1,-1,-1,-1],"loss_changes":[1.3608403E5,2.2233031E4,1.5330141E4,1.8712814E3,2.6835547E2,0E0,0E0,0E0,0E0,0E0,0E0],"parents":[2147483647,0,0,1,1,2,2,3,3,4,4],"right_children":[2,4,6,8,10,-1,-1,-1,-1,-1,-1],"split_conditions":[1.8611111E2,6.5E1,3.8222223E2,2.611111E1,9.777777E1,1.2789171E1,3.0239002E1,-1.7574094E-2,2.0236473E0,3.5789576E0,5.7314973E0],"split_indices":[9,9,9,9,9,0,0,0,0,0,0],"split_type":[0,0,0,0,0,0,0,0,0,0,0],"sum_hessian":[8.53E2,8E2,5.3E1,7.13E2,8.7E1,4.8E1,5E0,6.73E2,4E1,3.1E1,5.6E1],"tree_param":{"num_deleted":"0","num_feature":"11","num_nodes":"11","size_leaf_vector":"0"}},{"base_weights":[4.0860896E0,1.6322665E0,4.043922E1,1.4957376E-1,1.1621872E1,3.1194689E1,8.1897285E1,-1.09351896E-1,3.2723465E0,7.0699167E0,1.3264349E1,1.9299397E1,3.520761E1],"categories":[],"categories_nodes":[],"categories_segments":[],"categories_sizes":[],"default_left":[true,true,true,true,true,true,false,false,false,false,false,false,false],"id":6,"left_children":[1,3,5,7,9,11,-1,-1,-1,-1,-1,-1,-1],"loss_changes":[7.6160734E4,1.1918055E4,1.3031781E4,5.7030396E2,4.962207E2,3.0055078E2,0E0,0E0,0E0,0E0,0E0,0E0,0E0],"parents":[2147483647,0,0,1,1,2,2,3,3,4,4,5,5],"right_children":[2,4,6,8,10,12,-1,-1,-1,-1,-1,-1,-1],"split_conditions":[1.9166666E2,5.222222E1,3.8222223E2,1.1111112E0,7.722222E1,2.4166666E2,2.4569187E1,-3.280557E-2,9.81704E-1,2.120975E0,3.9793048E0,5.7898192E0,1.05622835E1],"split_indices":[9,9,9,9,9,9,0,0,0,0,0,0,0],"split_type":[0,0,0,0,0,0,0,0,0,0,0,0,0],"sum_hessian":[8.53E2,8.02E2,5.1E1,7.01E2,1.01E2,4.6E1,5E0,6.5E2,5.1E1,3.1E1,7E1,1.6E1,3E1],"tree_param":{"num_deleted":"0","num_feature":"11","num_nodes":"13","size_leaf_vector":"0"}},{"base_weights":[3.0283833E0,1.4990888E0,3.6757977E1,1.8330926E-1,1.0192761E1,2.6314524E1,7.023798E1,-3.7369367E-2,3.8245497E0,6.6971645E0,1.3316293E1],"categories":[],"categories_nodes":[],"categories_segments":[],"categories_sizes":[],"default_left":[true,true,true,true,true,false,false,false,false,false,false],"id":7,"left_children":[1,3,5,7,9,-1,-1,-1,-1,-1,-1],"loss_changes":[4.3989297E4,9.397216E3,7.3921016E3,5.765697E2,9.11666E2,0E0,0E0,0E0,0E0,0E0,0E0],"parents":[2147483647,0,0,1,1,2,2,3,3,4,4],"right_children":[2,4,6,8,10,-1,-1,-1,-1,-1,-1],"split_conditions":[2.4666666E2,6.722222E1,4.3277777E2,2.7222221E1,1.2222223E2,7.894357E0,2.1071396E1,-1.121081E-2,1.147365E0,2.0091496E0,3.994888E0],"split_indices":[9,9,9,9,9,0,0,0,0,0,0],"split_type":[0,0,0,0,0,0,0,0,0,0,0],"sum_hessian":[8.53E2,8.19E2,3.4E1,7.14E2,1.05E2,3E1,4E0,6.76E2,3.8E1,5.4E1,5.1E1],"tree_param":{"num_deleted":"0","num_feature":"11","num_nodes":"11","size_leaf_vector":"0"}},{"base_weights":[2.2464077E0,1.0754212E0,2.8079157E1,1.5053624E-1,7.456342E0,1.9137833E1,5.8197197E1,-2.2986121E-2,2.8881438E0,4.9631166E0,9.663234E0],"categories":[],"categories_nodes":[],"categories_segments":[],"categories_sizes":[],"default_left":[true,true,true,true,true,false,false,false,false,false,false],"id":8,"left_children":[1,3,5,7,9,-1,-1,-1,-1,-1,-1],"loss_changes":[2.580324E4,4.847762E3,6.622617E3,3.4270023E2,4.283579E2,0E0,0E0,0E0,0E0,0E0,0E0],"parents":[2147483647,0,0,1,1,2,2,3,3,4,4],"right_children":[2,4,6,8,10,-1,-1,-1,-1,-1,-1],"split_conditions":[2.4666666E2,6.833333E1,4.3277777E2,2.8333334E1,1.23888885E2,5.74135E0,1.745916E1,-6.895837E-3,8.6644316E-1,1.488935E0,2.8989701E0],"split_indices":[9,9,9,9,9,0,0,0,0,0,0],"split_type":[0,0,0,0,0,0,0,0,0,0,0],"sum_hessian":[8.53E2,8.19E2,3.4E1,7.18E2,1.01E2,3E1,4E0,6.78E2,4E1,5.2E1,4.9E1],"tree_param":{"num_deleted":"0","num_feature":"11","num_nodes":"11","size_leaf_vector":"0"}},{"base_weights":[1.6721858E0,1.0349163E0,3.2940674E1,2.0587793E-1,7.043453E0,1.7111366E1,4.8220528E1,-3.2207146E-2,2.392366E0,4.7299495E0,1.0274638E1],"categories":[],"categories_nodes":[],"categories_segments":[],"categories_sizes":[],"default_left":[true,true,true,true,true,false,false,false,false,false,false],"id":9,"left_children":[1,3,5,7,9,-1,-1,-1,-1,-1,-1],"loss_changes":[1.6954771E4,4.189911E3,1.6364258E3,3.8701477E2,6.166909E2,0E0,0E0,0E0,0E0,0E0,0E0],"parents":[2147483647,0,0,1,1,2,2,3,3,4,4],"right_children":[2,4,6,8,10,-1,-1,-1,-1,-1,-1],"split_conditions":[3.111111E2,8.777777E1,4.3277777E2,2.388889E1,1.9166666E2,5.13341E0,1.4466159E1,-9.662144E-3,7.177098E-1,1.4189849E0,3.0823915E0],"split_indices":[9,9,9,9,9,0,0,0,0,0,0],"split_type":[0,0,0,0,0,0,0,0,0,0,0],"sum_hessian":[8.53E2,8.39E2,1.4E1,7.4E2,9.9E1,1E1,4E0,6.7E2,7E1,6.2E1,3.7E1],"tree_param":{"num_deleted":"0","num_feature":"11","num_nodes":"11","size_leaf_vector":"0"}},{"base_weights":[1.2574769E0,7.4300194E-1,2.6517212E1,2.3016219E-1,5.978437E0,1.3162579E1,3.9954155E1,-1.35765765E-2,2.0721965E0,-5.939738E-1,6.277036E0],"categories":[],"categories_nodes":[],"categories_segments":[],"categories_sizes":[],"default_left":[true,true,true,true,true,false,false,false,false,false,false],"id":10,"left_children":[1,3,5,7,9,-1,-1,-1,-1,-1,-1],"loss_changes":[1.1065042E4,2.2565908E3,1.472873E3,3.4579526E2,1.5837427E2,0E0,0E0,0E0,0E0,0E0,0E0],"parents":[2147483647,0,0,1,1,2,2,3,3,4,4],"right_children":[2,4,6,8,10,-1,-1,-1,-1,-1,-1],"split_conditions":[3.111111E2,1.2055556E2,4.3277777E2,2.9444445E1,1.35E1,3.9487736E0,1.1986247E1,-4.072973E-3,6.21659E-1,-1.7819215E-1,1.8831109E0],"split_indices":[9,9,9,9,5,0,0,0,0,0,0],"split_type":[0,0,0,0,0,0,0,0,0,0,0],"sum_hessian":[8.53E2,8.39E2,1.4E1,7.67E2,7.2E1,1E1,4E0,6.8E2,8.7E1,3E0,6.9E1],"tree_param":{"num_deleted":"0","num_feature":"11","num_nodes":"11","size_leaf_vector":"0"}},{"base_weights":[9.442203E-1,6.3431126E-1,2.9898668E1,2.6266724E-1,6.8274465E0,3.545665E-2,2.0442276E0,7.5832667E0,-8.4946984E-1],"categories":[],"categories_nodes":[],"categories_segments":[],"categories_sizes":[],"default_left":[true,true,false,true,true,false,false,false,false],"id":11,"left_children":[1,3,-1,5,7,-1,-1,-1,-1],"loss_changes":[7.6242026E3,1.9510155E3,0E0,3.2563806E2,2.9783887E2,0E0,0E0,0E0,0E0],"parents":[2147483647,0,0,1,1,3,3,4,4],"right_children":[2,4,-1,6,8,-1,-1,-1,-1],"split_conditions":[3.6055554E2,1.9166666E2,8.969601E0,6.722222E1,4.5E0,1.0636996E-2,6.132683E-1,2.27498E0,-2.5484097E-1],"split_indices":[9,9,0,9,7,0,0,0,0],"split_type":[0,0,0,0,0,0,0,0,0],"sum_hessian":[8.53E2,8.47E2,6E0,8.02E2,4.5E1,7.14E2,8.8E1,4.1E1,4E0],"tree_param":{"num_deleted":"0","num_feature":"11","num_nodes":"9","size_leaf_vector":"0"}},{"base_weights":[7.016562E-1,4.750728E-1,2.7979387E1,1.8931319E-1,5.2497144E0,-5.558969E-2,1.2043046E0,6.177195E0,4.4531667E-1],"categories":[],"categories_nodes":[],"categories_segments":[],"categories_sizes":[],"default_left":[true,true,false,true,true,false,false,false,false],"id":12,"left_children":[1,3,-1,5,7,-1,-1,-1,-1],"loss_changes":[5.250787E3,1.159487E3,0E0,2.0080031E2,2.0563501E2,0E0,0E0,0E0,0E0],"parents":[2147483647,0,0,1,1,3,3,4,4],"right_children":[2,4,-1,6,8,-1,-1,-1,-1],"split_conditions":[4.3277777E2,1.95E2,8.393817E0,1.1111112E0,3.5E0,-1.6676908E-2,3.6129138E-1,1.8531586E0,1.33595E-1],"split_indices":[9,9,0,9,7,0,0,0,0],"split_type":[0,0,0,0,0,0,0,0,0],"sum_hessian":[8.53E2,8.49E2,4E0,8.04E2,4.5E1,6.5E2,1.54E2,3.7E1,8E0],"tree_param":{"num_deleted":"0","num_feature":"11","num_nodes":"9","size_leaf_vector":"0"}},{"base_weights":[5.2874756E-1,3.4076E-1,2.3182913E1,9.9748656E-2,3.3543901E0,-3.89894E-2,7.3564094E-1,-1.8607178E0,3.7081816E0],"categories":[],"categories_nodes":[],"categories_segments":[],"categories_sizes":[],"default_left":[true,true,false,true,true,false,false,false,false],"id":13,"left_children":[1,3,-1,5,7,-1,-1,-1,-1],"loss_changes":[3.621749E3,6.1782007E2,0E0,6.995824E1,1.3693842E2,0E0,0E0,0E0,0E0],"parents":[2147483647,0,0,1,1,3,3,4,4],"right_children":[2,4,-1,6,8,-1,-1,-1,-1],"split_conditions":[4.3277777E2,1.6055556E2,6.954874E0,1.1111112E0,1.35E1,-1.169682E-2,2.2069229E-1,-5.582154E-1,1.1124545E0],"split_indices":[9,9,0,9,5,0,0,0,0],"split_type":[0,0,0,0,0,0,0,0,0],"sum_hessian":[8.53E2,8.49E2,4E0,7.89E2,6E1,6.5E2,1.39E2,3E0,5.7E1],"tree_param":{"num_deleted":"0","num_feature":"11","num_nodes":"9","size_leaf_vector":"0"}},{"base_weights":[3.9717248E-1,2.4121913E-1,1.9208706E1,1.1613787E-1,3.656832E0,1.5620165E-1,-2.422354E0,4.3384314E0,1.555214E-1],"categories":[],"categories_nodes":[],"categories_segments":[],"categories_sizes":[],"default_left":[true,true,false,true,true,false,false,false,false],"id":14,"left_children":[1,3,-1,5,7,-1,-1,-1,-1],"loss_changes":[2.497365E3,3.6272513E2,0E0,8.5038925E1,6.957059E1,0E0,0E0,0E0,0E0],"parents":[2147483647,0,0,1,1,3,3,4,4],"right_children":[2,4,-1,6,8,-1,-1,-1,-1],"split_conditions":[4.3277777E2,2.55E2,5.762612E0,2.1833334E2,9E0,4.6860494E-2,-7.267062E-1,1.3015294E0,4.665642E-2],"split_indices":[9,9,0,9,6,0,0,0,0],"split_type":[0,0,0,0,0,0,0,0,0],"sum_hessian":[8.53E2,8.49E2,4E0,8.22E2,2.7E1,8.12E2,1E1,2.2E1,5E0],"tree_param":{"num_deleted":"0","num_feature":"11","num_nodes":"9","size_leaf_vector":"0"}},{"base_weights":[3.0055898E-1,1.787463E-1,1.7467981E1,4.0850665E-2,2.595251E0,-4.8324388E-2,7.470247E-1,7.020586E0,1.5418745E0],"categories":[],"categories_nodes":[],"categories_segments":[],"categories_sizes":[],"default_left":[true,true,false,true,true,false,false,false,false],"id":15,"left_children":[1,3,-1,5,7,-1,-1,-1,-1],"loss_changes":[1.7807085E3,2.8392325E2,0E0,5.1116516E1,1.8195642E2,0E0,0E0,0E0,0E0],"parents":[2147483647,0,0,1,1,3,3,4,4],"right_children":[2,4,-1,6,8,-1,-1,-1,-1],"split_conditions":[4.7222223E2,1.9833334E2,5.2403946E0,6.944444E1,2.1833334E2,-1.4497316E-2,2.2410743E-1,2.106176E0,4.6256238E-1],"split_indices":[9,9,0,9,9,0,0,0,0],"split_type":[0,0,0,0,0,0,0,0,0],"sum_hessian":[8.53E2,8.5E2,3E0,8.07E2,4.3E1,7.19E2,8.8E1,5E0,3.8E1],"tree_param":{"num_deleted":"0","num_feature":"11","num_nodes":"9","size_leaf_vector":"0"}},{"base_weights":[2.3849486E-1,1.3489434E-1,1.4847789E1,6.710901E-2,4.1827917E0,-3.3887353E-2,6.583127E-1,4.9798613E0,1.2514954E0],"categories":[],"categories_nodes":[],"categories_segments":[],"categories_sizes":[],"default_left":[true,true,false,true,true,false,false,false,false],"id":16,"left_children":[1,3,-1,5,7,-1,-1,-1,-1],"loss_changes":[1.2895735E3,2.3321088E2,0E0,5.0342255E1,1.4013458E1,0E0,0E0,0E0,0E0],"parents":[2147483647,0,0,1,1,3,3,4,4],"right_children":[2,4,-1,6,8,-1,-1,-1,-1],"split_conditions":[4.7222223E2,3.111111E2,4.4543366E0,6.944444E1,2.5E0,-1.0166206E-2,1.974938E-1,1.4939585E0,3.754486E-1],"split_indices":[9,9,0,9,7,0,0,0,0],"split_type":[0,0,0,0,0,0,0,0,0],"sum_hessian":[8.53E2,8.5E2,3E0,8.39E2,1.1E1,7.19E2,1.2E2,7E0,4E0],"tree_param":{"num_deleted":"0","num_feature":"11","num_nodes":"9","size_leaf_vector":"0"}},{"base_weights":[1.8976551E-1,1.01659544E-1,1.2620616E1,4.7643755E-2,3.3285391E0,2.2697005E-2,1.926067E0,4.0289216E0,9.014762E-1],"categories":[],"categories_nodes":[],"categories_segments":[],"categories_sizes":[],"default_left":[true,true,false,true,true,false,false,false,false],"id":17,"left_children":[1,3,-1,5,7,-1,-1,-1,-1],"loss_changes":[9.3366974E2,1.4820425E2,0E0,3.9325436E1,1.2902267E1,0E0,0E0,0E0,0E0],"parents":[2147483647,0,0,1,1,3,3,4,4],"right_children":[2,4,-1,6,8,-1,-1,-1,-1],"split_conditions":[4.7222223E2,3.111111E2,3.786185E0,1.0077E4,2.75E1,6.809102E-3,5.778201E-1,1.2086766E0,2.7044287E-1],"split_indices":[9,9,0,1,5,0,0,0,0],"split_type":[0,0,0,0,0,0,0,0,0],"sum_hessian":[8.53E2,8.5E2,3E0,8.39E2,1.1E1,8.31E2,8E0,7E0,4E0],"tree_param":{"num_deleted":"0","num_feature":"11","num_nodes":"9","size_leaf_vector":"0"}},{"base_weights":[1.5333834E-1,7.84203E-2,1.0727519E1,3.610026E-2,2.8046148E0,-4.7550593E-2,3.859483E-1,3.5732896E0,6.1434066E-1],"categories":[],"categories_nodes":[],"categories_segments":[],"categories_sizes":[],"default_left":[true,true,false,true,true,false,false,false,false],"id":18,"left_children":[1,3,-1,5,7,-1,-1,-1,-1],"loss_changes":[6.7559686E2,9.810912E1,0E0,2.4725527E1,1.5301262E1,0E0,0E0,0E0,0E0],"parents":[2147483647,0,0,1,1,3,3,4,4],"right_children":[2,4,-1,6,8,-1,-1,-1,-1],"split_conditions":[4.7222223E2,3.1555554E2,3.2182558E0,2.9444445E1,2.5E0,-1.4265179E-2,1.15784496E-1,1.0719869E0,1.8430221E-1],"split_indices":[9,9,0,9,7,0,0,0,0],"split_type":[0,0,0,0,0,0,0,0,0],"sum_hessian":[8.53E2,8.5E2,3E0,8.4E2,1E1,6.8E2,1.6E2,6E0,4E0],"tree_param":{"num_deleted":"0","num_feature":"11","num_nodes":"9","size_leaf_vector":"0"}},{"base_weights":[1.23374574E-1,5.9669767E-2,9.118388E0,2.563161E-2,2.2531433E0,4.947718E-2,-1.1417137E0,2.9527655E0,3.8799614E-1],"categories":[],"categories_nodes":[],"categories_segments":[],"categories_sizes":[],"default_left":[true,true,false,true,true,false,false,false,false],"id":19,"left_children":[1,3,-1,5,7,-1,-1,-1,-1],"loss_changes":[4.8887766E2,6.3513256E1,0E0,2.3635227E1,1.3526695E1,0E0,0E0,0E0,0E0],"parents":[2147483647,0,0,1,1,3,3,4,4],"right_children":[2,4,-1,6,8,-1,-1,-1,-1],"split_conditions":[4.7222223E2,3.1555554E2,2.7355165E0,2.661111E2,2.75E1,1.4843154E-2,-3.4251413E-1,8.858297E-1,1.1639885E-1],"split_indices":[9,9,0,9,5,0,0,0,0],"split_type":[0,0,0,0,0,0,0,0,0],"sum_hessian":[8.53E2,8.5E2,3E0,8.4E2,1E1,8.26E2,1.4E1,6E0,4E0],"tree_param":{"num_deleted":"0","num_feature":"11","num_nodes":"9","size_leaf_vector":"0"}},{"base_weights":[9.831314E-2,4.414095E-2,7.7506356E0,-1.0810278E-2,1.0088816E0,-3.12082E-2,1.0765213E0,5.423521E0,7.366794E-2],"categories":[],"categories_nodes":[],"categories_segments":[],"categories_sizes":[],"default_left":[true,true,false,true,true,false,false,false,false],"id":20,"left_children":[1,3,-1,5,7,-1,-1,-1,-1],"loss_changes":[3.538225E2,4.5253387E1,0E0,1.8066029E1,1.8871841E2,0E0,0E0,0E0,0E0],"parents":[2147483647,0,0,1,1,3,3,4,4],"right_children":[2,4,-1,6,8,-1,-1,-1,-1],"split_conditions":[4.7222223E2,1.9833334E2,2.3251908E0,9.648E3,2.1833334E2,-9.36246E-3,3.2295638E-1,1.6270564E0,2.2100383E-2],"split_indices":[9,9,0,1,9,0,0,0,0],"split_type":[0,0,0,0,0,0,0,0,0],"sum_hessian":[8.53E2,8.5E2,3E0,8.07E2,4.3E1,7.95E2,1.2E1,5E0,3.8E1],"tree_param":{"num_deleted":"0","num_feature":"11","num_nodes":"9","size_leaf_vector":"0"}},{"base_weights":[8.384734E-2,1.309791E-2,4.668653E0,-4.2239637E-3,1.3291377E0,9.002724E0,6.6761476E-1,2.880448E-2,-2.2848828E0,2.0403023E0,-2.8365073E-1,-4.8713684E-1,1.3712813E0],"categories":[],"categories_nodes":[],"categories_segments":[],"categories_sizes":[],"default_left":[true,true,true,true,true,false,true,false,false,false,false,false,false],"id":21,"left_children":[1,3,5,7,9,-1,11,-1,-1,-1,-1,-1,-1],"loss_changes":[2.774793E2,1.930249E1,2.0739911E2,6.3321148E1,1.4352737E1,0E0,1.0129604E1,0E0,0E0,0E0,0E0,0E0,0E0],"parents":[2147483647,0,0,1,1,2,2,3,3,4,4,6,6],"right_children":[2,4,6,8,10,-1,12,-1,-1,-1,-1,-1,-1],"split_conditions":[1.0407E4,3.0666666E2,5E-1,2.661111E2,3.488889E2,2.700817E0,3.35E2,8.6413445E-3,-6.8546486E-1,6.120907E-1,-8.509522E-2,-1.4614105E-1,4.113844E-1],"split_indices":[1,9,7,9,9,0,9,0,0,0,0,0,0],"split_type":[0,0,0,0,0,0,0,0,0,0,0,0,0],"sum_hessian":[8.53E2,8.43E2,1E1,8.35E2,8E0,3E0,7E0,8.26E2,9E0,5E0,3E0,3E0,4E0],"tree_param":{"num_deleted":"0","num_feature":"11","num_nodes":"13","size_leaf_vector":"0"}},{"base_weights":[6.856329E-2,8.637331E-3,3.952538E0,-1.6630787E-2,7.222216E-1,7.6523185E0,5.4690856E-1,2.8279245E-2,-4.5856037E0,2.5315437E0,-4.7170487E-1,-4.140625E-1,1.1362087E0],"categories":[],"categories_nodes":[],"categories_segments":[],"categories_sizes":[],"default_left":[true,true,true,true,true,false,true,false,false,false,false,false,false],"id":22,"left_children":[1,3,5,7,9,-1,11,-1,-1,-1,-1,-1,-1],"loss_changes":[1.9913237E2,1.5290202E1,1.5124568E2,1.6864706E2,6.622816E1,0E0,7.0743876E0,0E0,0E0,0E0,0E0,0E0,0E0],"parents":[2147483647,0,0,1,1,2,2,3,3,4,4,6,6],"right_children":[2,4,6,8,10,-1,12,-1,-1,-1,-1,-1,-1],"split_conditions":[1.0407E4,2.3611111E2,5E-1,2.1833334E2,2.661111E2,2.2956955E0,3.35E2,8.483774E-3,-1.3756812E0,7.5946313E-1,-1.4151147E-1,-1.24218754E-1,3.408626E-1],"split_indices":[1,9,7,9,9,0,9,0,0,0,0,0,0],"split_type":[0,0,0,0,0,0,0,0,0,0,0,0,0],"sum_hessian":[8.53E2,8.43E2,1E1,8.17E2,2.6E1,3E0,7E0,8.12E2,5E0,9E0,1.7E1,3E0,4E0],"tree_param":{"num_deleted":"0","num_feature":"11","num_nodes":"13","size_leaf_vector":"0"}},{"base_weights":[5.417343E-2,-3.5369026E-3,3.084629E0,1.9826677E-2,-6.174306E-1,6.397354E0,8.4384155E-1,-2.3009703E-2,4.9742303E0,-4.1691175E0,3.7198046E-1,1.8080559E0,-4.3681335E-1],"categories":[],"categories_nodes":[],"categories_segments":[],"categories_sizes":[],"default_left":[true,true,true,true,true,false,true,false,false,false,false,false,false],"id":23,"left_children":[1,3,5,7,9,-1,11,-1,-1,-1,-1,-1,-1],"loss_changes":[1.4973737E2,1.2127667E1,1.0257475E2,1.7330977E2,1.1358892E2,0E0,1.8422085E1,0E0,0E0,0E0,0E0,0E0,0E0],"parents":[2147483647,0,0,1,1,2,2,3,3,4,4,6,6],"right_children":[2,4,6,8,10,-1,12,-1,-1,-1,-1,-1,-1],"split_conditions":[3.1555554E2,2.1833334E2,5E-1,2.0277777E2,2.3166667E2,1.9192063E0,2.75E1,-6.9029112E-3,1.4922692E0,-1.2507353E0,1.1159414E-1,5.424168E-1,-1.3104402E-1],"split_indices":[9,9,7,9,9,0,5,0,0,0,0,0,0],"split_type":[0,0,0,0,0,0,0,0,0,0,0,0,0],"sum_hessian":[8.53E2,8.4E2,1.3E1,8.12E2,2.8E1,3E0,1E1,8.08E2,4E0,4E0,2.4E1,5E0,5E0],"tree_param":{"num_deleted":"0","num_feature":"11","num_nodes":"13","size_leaf_vector":"0"}},{"base_weights":[4.730265E-2,1.43985385E-2,4.03193E0,-1.3254231E-2,7.480336E-1,1.9346243E-2,-2.2240562E0,3.0390892E0,-4.3218173E-2],"categories":[],"categories_nodes":[],"categories_segments":[],"categories_sizes":[],"default_left":[true,true,false,true,true,false,false,false,false],"id":24,"left_children":[1,3,-1,5,7,-1,-1,-1,-1],"loss_changes":[1.1205652E2,1.7314302E1,0E0,5.951739E1,5.659088E1,0E0,0E0,0E0,0E0],"parents":[2147483647,0,0,1,1,3,3,4,4],"right_children":[2,4,-1,6,8,-1,-1,-1,-1],"split_conditions":[4.3277777E2,2.5111111E2,1.209579E0,2.1833334E2,2.661111E2,5.803873E-3,-6.672169E-1,9.117268E-1,-1.2965453E-2],"split_indices":[9,9,0,9,9,0,0,0,0],"split_type":[0,0,0,0,0,0,0,0,0],"sum_hessian":[8.53E2,8.49E2,4E0,8.21E2,2.8E1,8.12E2,9E0,5E0,2.3E1],"tree_param":{"num_deleted":"0","num_feature":"11","num_nodes":"9","size_leaf_vector":"0"}},{"base_weights":[3.8183253E-2,-2.0614264E-3,2.6483717E0,9.763406E-3,-1.6624197E0,5.445109E0,1.7581788E-1,-5.9268232E-3,1.886165E0,8.701782E-1,-7.2217816E-1],"categories":[],"categories_nodes":[],"categories_segments":[],"categories_sizes":[],"default_left":[true,true,true,true,false,false,true,false,false,false,false],"id":25,"left_children":[1,3,5,7,-1,-1,9,-1,-1,-1,-1],"loss_changes":[8.993593E1,1.6658598E1,8.702404E1,2.4852446E1,0E0,0E0,8.120599E0,0E0,0E0,0E0,0E0],"parents":[2147483647,0,0,1,1,2,2,3,3,6,6],"right_children":[2,4,6,8,-1,-1,10,-1,-1,-1,-1],"split_conditions":[1.0407E4,1.035E4,5E-1,3.1555554E2,-4.9872592E-1,1.6335328E0,2.5E0,-1.7780471E-3,5.6584954E-1,2.6105347E-1,-2.1665345E-1],"split_indices":[1,1,7,9,0,0,7,0,0,0,0],"split_type":[0,0,0,0,0,0,0,0,0,0,0],"sum_hessian":[8.53E2,8.43E2,1E1,8.4E2,3E0,3E0,7E0,8.36E2,4E0,4E0,3E0],"tree_param":{"num_deleted":"0","num_feature":"11","num_nodes":"11","size_leaf_vector":"0"}},{"base_weights":[3.2838173E-2,-2.655343E-3,2.1680887E0,1.3985474E-2,-7.283012E-1,4.6283364E0,2.348383E-1,-1.04528135E-2,2.8882184E0,-3.3205235E0,3.8033867E-1,7.832947E-1,-6.13856E-1],"categories":[],"categories_nodes":[],"categories_segments":[],"categories_sizes":[],"default_left":[true,true,true,true,true,false,true,false,false,false,false,false,false],"id":26,"left_children":[1,3,5,7,9,-1,11,-1,-1,-1,-1,-1,-1],"loss_changes":[6.489141E1,1.0234219E1,6.3327118E1,5.8320637E1,5.839175E1,0E0,6.56268E0,0E0,0E0,0E0,0E0,0E0,0E0],"parents":[2147483647,0,0,1,1,2,2,3,3,4,4,6,6],"right_children":[2,4,6,8,10,-1,12,-1,-1,-1,-1,-1,-1],"split_conditions":[1.0395E4,2.661111E2,5E-1,2.55E2,2.783333E2,1.3885009E0,2.5E0,-3.1358441E-3,8.6646557E-1,-9.961571E-1,1.141016E-1,2.349884E-1,-1.841568E-1],"split_indices":[1,9,7,9,9,0,7,0,0,0,0,0,0],"split_type":[0,0,0,0,0,0,0,0,0,0,0,0,0],"sum_hessian":[8.53E2,8.42E2,1.1E1,8.26E2,1.6E1,3E0,8E0,8.22E2,4E0,3E0,1.3E1,5E0,3E0],"tree_param":{"num_deleted":"0","num_feature":"11","num_nodes":"13","size_leaf_vector":"0"}},{"base_weights":[2.796579E-2,-5.90036E-3,1.807045E0,1.2914433E-2,-9.22357E-1,3.9160461E0,4.1664946E-1,-7.327979E-3,2.3930926E0,-2.822446E0,8.961487E-2,1.3104973E0,-6.334419E-1],"categories":[],"categories_nodes":[],"categories_segments":[],"categories_sizes":[],"default_left":[true,true,true,true,true,false,true,false,false,false,false,false,false],"id":27,"left_children":[1,3,5,7,9,-1,11,-1,-1,-1,-1,-1,-1],"loss_changes":[5.1606472E1,1.4571536E1,4.202268E1,3.999428E1,3.344702E1,0E0,1.4692457E1,0E0,0E0,0E0,0E0,0E0,0E0],"parents":[2147483647,0,0,1,1,2,2,3,3,4,4,6,6],"right_children":[2,4,6,8,10,-1,12,-1,-1,-1,-1,-1,-1],"split_conditions":[3.1555554E2,2.661111E2,5E-1,2.55E2,2.783333E2,1.1748139E0,2.75E1,-2.1983937E-3,7.179278E-1,-8.4673387E-1,2.688446E-2,3.931492E-1,-1.9003259E-1],"split_indices":[9,9,7,9,9,0,5,0,0,0,0,0,0],"split_type":[0,0,0,0,0,0,0,0,0,0,0,0,0],"sum_hessian":[8.53E2,8.4E2,1.3E1,8.26E2,1.4E1,3E0,1E1,8.22E2,4E0,3E0,1.1E1,5E0,5E0],"tree_param":{"num_deleted":"0","num_feature":"11","num_nodes":"13","size_leaf_vector":"0"}},{"base_weights":[2.4040185E-2,-4.500929E-3,1.5232925E0,2.0650437E-2,-6.653029E-1,3.3286438E0,3.3852446E-1,-1.2523447E-2,4.4998574E0,-3.0690722E0,3.1819098E-2,1.5608011E0,-4.9639893E-1],"categories":[],"categories_nodes":[],"categories_segments":[],"categories_sizes":[],"default_left":[true,true,true,true,true,false,true,false,false,false,false,false,false],"id":28,"left_children":[1,3,5,7,9,-1,11,-1,-1,-1,-1,-1,-1],"loss_changes":[3.6649094E1,1.4051938E1,3.0842278E1,1.2127211E2,5.2240295E1,0E0,1.5590937E1,0E0,0E0,0E0,0E0,0E0,0E0],"parents":[2147483647,0,0,1,1,2,2,3,3,4,4,6,6],"right_children":[2,4,6,8,10,-1,12,-1,-1,-1,-1,-1,-1],"split_conditions":[3.1555554E2,2.1833334E2,5E-1,2.0722223E2,2.3166667E2,9.9859315E-1,1.0116E4,-3.7570342E-3,1.3499572E0,-9.207217E-1,9.5457295E-3,4.6824035E-1,-1.4891969E-1],"split_indices":[9,9,7,9,9,0,1,0,0,0,0,0,0],"split_type":[0,0,0,0,0,0,0,0,0,0,0,0,0],"sum_hessian":[8.53E2,8.4E2,1.3E1,8.12E2,2.8E1,3E0,1E1,8.09E2,3E0,4E0,2.4E1,3E0,7E0],"tree_param":{"num_deleted":"0","num_feature":"11","num_nodes":"13","size_leaf_vector":"0"}},{"base_weights":[2.2971157E-2,2.3785504E-3,1.7643921E0,-5.2608076E-2,1.827762E-1,2.989162E0,-5.467021E-1,5.416899E-1,-2.4378204E-1],"categories":[],"categories_nodes":[],"categories_segments":[],"categories_sizes":[],"default_left":[true,true,true,false,true,false,false,false,false],"id":29,"left_children":[1,3,5,-1,7,-1,-1,-1,-1],"loss_changes":[3.0683908E1,8.450466E0,3.3208126E1,0E0,3.086258E1,0E0,0E0,0E0,0E0],"parents":[2147483647,0,0,1,1,2,2,4,4],"right_children":[2,4,6,-1,8,-1,-1,-1,-1],"split_conditions":[1.0506E4,1.1111112E0,2.5E0,-1.5782423E-2,1.1E2,8.967486E-1,-1.6401063E-1,1.6250697E-1,-7.3134616E-2],"split_indices":[1,9,7,0,9,0,0,0,0],"split_type":[0,0,0,0,0,0,0,0,0],"sum_hessian":[8.53E2,8.46E2,7E0,6.5E2,1.96E2,4E0,3E0,1.06E2,9E1],"tree_param":{"num_deleted":"0","num_feature":"11","num_nodes":"9","size_leaf_vector":"0"}},{"base_weights":[1.8905565E-2,6.5035565E-4,1.5631012E0,-3.0976508E-2,3.1446114E-1,-2.7137104E-1,2.9217682E0,2.3351824E-2,-2.3166585E0,3.0633106E0,2.9430652E-4],"categories":[],"categories_nodes":[],"categories_segments":[],"categories_sizes":[],"default_left":[true,true,true,true,true,false,false,false,false,false,false],"id":30,"left_children":[1,3,5,7,9,-1,-1,-1,-1,-1,-1],"loss_changes":[2.412726E1,8.4554205E0,2.7303017E1,9.627552E1,6.735789E1,0E0,0E0,0E0,0E0,0E0,0E0],"parents":[2147483647,0,0,1,1,2,2,3,3,4,4],"right_children":[2,4,6,8,10,-1,-1,-1,-1,-1,-1],"split_conditions":[3.538889E2,1.26666664E2,1.0506E4,1.1E2,1.3555554E2,-8.141132E-2,8.7653047E-1,7.0055476E-3,-6.9499755E-1,9.1899323E-1,8.8291956E-5],"split_indices":[9,9,1,9,9,0,0,0,0,0,0],"split_type":[0,0,0,0,0,0,0,0,0,0,0],"sum_hessian":[8.53E2,8.46E2,7E0,7.71E2,7.5E1,4E0,3E0,7.56E2,1.5E1,5E0,7E1],"tree_param":{"num_deleted":"0","num_feature":"11","num_nodes":"11","size_leaf_vector":"0"}},{"base_weights":[1.6830409E-2,-3.1043584E-3,1.0639877E0,1.3148051E-2,-7.951005E-1,2.2504222E0,2.70867E-1,-2.7092483E-3,2.1895955E0,-2.3673298E0,4.9090795E-2,1.3767853E0,-4.739441E-1],"categories":[],"categories_nodes":[],"categories_segments":[],"categories_sizes":[],"default_left":[true,true,true,true,true,false,true,false,false,false,false,false,false],"id":31,"left_children":[1,3,5,7,9,-1,11,-1,-1,-1,-1,-1,-1],"loss_changes":[1.7878769E1,1.0882328E1,1.32270775E1,2.8628725E1,2.2912102E1,0E0,1.266566E1,0E0,0E0,0E0,0E0,0E0,0E0],"parents":[2147483647,0,0,1,1,2,2,3,3,4,4,6,6],"right_children":[2,4,6,8,10,-1,12,-1,-1,-1,-1,-1,-1],"split_conditions":[3.1555554E2,2.661111E2,5E-1,2.588889E2,2.783333E2,6.751267E-1,1.0116E4,-8.127745E-4,6.5687865E-1,-7.10199E-1,1.47272395E-2,4.130356E-1,-1.4218323E-1],"split_indices":[9,9,7,9,9,0,1,0,0,0,0,0,0],"split_type":[0,0,0,0,0,0,0,0,0,0,0,0,0],"sum_hessian":[8.53E2,8.4E2,1.3E1,8.26E2,1.4E1,3E0,1E1,8.23E2,3E0,3E0,1.1E1,3E0,7E0],"tree_param":{"num_deleted":"0","num_feature":"11","num_nodes":"13","size_leaf_vector":"0"}},{"base_weights":[1.4958402E-2,-3.7641555E-2,3.6901146E-1,-2.1070883E-2,-3.293621E-1,2.942743E0,-2.3812866E-3,-3.753064E-2,1.650395E0,-1.6400857E0,-1.5371051E-3,7.288688E-1,3.609632E0,-3.3019624E0,3.5248917E-1],"categories":[],"categories_nodes":[],"categories_segments":[],"categories_sizes":[],"default_left":[true,true,true,true,true,true,true,false,false,false,false,false,false,false,false],"id":32,"left_children":[1,3,5,7,9,11,13,-1,-1,-1,-1,-1,-1,-1,-1],"loss_changes":[1.5983109E1,3.595016E0,1.0612207E2,1.9746798E1,1.7179955E1,1.2776871E1,1.2058411E2,0E0,0E0,0E0,0E0,0E0,0E0,0E0,0E0],"parents":[2147483647,0,0,1,1,2,2,3,3,4,4,5,5,6,6],"right_children":[2,4,6,8,10,12,14,-1,-1,-1,-1,-1,-1,-1,-1],"split_conditions":[9.944444E1,5.888889E1,1.1E2,5.5555557E1,6.5E1,1.0166667E2,1.1722222E2,-1.1259192E-2,4.9511853E-1,-4.9202573E-1,-4.6113154E-4,2.1866064E-1,1.0828897E0,-9.905887E-1,1.0574675E-1],"split_indices":[9,9,9,9,9,9,9,0,0,0,0,0,0,0,0],"split_type":[0,0,0,0,0,0,0,0,0,0,0,0,0,0,0],"sum_hessian":[8.53E2,7.45E2,1.08E2,7.08E2,3.7E1,1.1E1,9.7E1,7.04E2,4E0,5E0,3.2E1,4E0,7E0,7E0,9E1],"tree_param":{"num_deleted":"0","num_feature":"11","num_nodes":"15","size_leaf_vector":"0"}},{"base_weights":[1.1901348E-2,-4.317361E-3,9.88266E-1,1.9456707E-2,-5.910723E-1,2.3442535E0,-2.089067E-2,-1.0881576E-2,3.526025E0,-2.5611725E0,-5.438548E-2,4.157257E-1,-5.926005E-1],"categories":[],"categories_nodes":[],"categories_segments":[],"categories_sizes":[],"default_left":[true,true,true,true,true,false,true,false,false,false,false,false,false],"id":33,"left_children":[1,3,5,7,9,-1,11,-1,-1,-1,-1,-1,-1],"loss_changes":[1.3567881E1,1.1821872E1,1.9304573E1,8.681746E1,3.4473915E1,0E0,3.4848745E0,0E0,0E0,0E0,0E0,0E0,0E0],"parents":[2147483647,0,0,1,1,2,2,3,3,4,4,6,6],"right_children":[2,4,6,8,10,-1,12,-1,-1,-1,-1,-1,-1],"split_conditions":[1.0395E4,2.1833334E2,5E-1,2.0277777E2,2.3166667E2,7.032761E-1,2.5E0,-3.2644728E-3,1.0578076E0,-7.683518E-1,-1.6315645E-2,1.2471772E-1,-1.7778017E-1],"split_indices":[1,9,7,9,9,0,7,0,0,0,0,0,0],"split_type":[0,0,0,0,0,0,0,0,0,0,0,0,0],"sum_hessian":[8.53E2,8.42E2,1.1E1,8.12E2,3E1,3E0,8E0,8.08E2,4E0,4E0,2.6E1,5E0,3E0],"tree_param":{"num_deleted":"0","num_feature":"11","num_nodes":"13","size_leaf_vector":"0"}},{"base_weights":[1.1555823E-2,-6.477458E-5,9.946777E-1,-2.1002224E-1,3.5360415E-2,-3.1430927E-1,2.0244904E0,9.6768765E-3,-1.4932132E0,-1.577263E-2,5.4129165E-1],"categories":[],"categories_nodes":[],"categories_segments":[],"categories_sizes":[],"default_left":[true,true,true,true,true,false,false,false,false,false,false],"id":34,"left_children":[1,3,5,7,9,-1,-1,-1,-1,-1,-1],"loss_changes":[9.779534E0,6.336957E0,1.5389062E1,3.4719006E1,1.8884699E1,0E0,0E0,0E0,0E0,0E0,0E0],"parents":[2147483647,0,0,1,1,2,2,3,3,4,4],"right_children":[2,4,6,8,10,-1,-1,-1,-1,-1,-1],"split_conditions":[3.538889E2,5E-1,1.0506E4,1.3333333E2,1.18888885E2,-9.429278E-2,6.0734713E-1,2.903063E-3,-4.4796398E-1,-4.731789E-3,1.623875E-1],"split_indices":[9,7,1,9,9,0,0,0,0,0,0],"split_type":[0,0,0,0,0,0,0,0,0,0,0],"sum_hessian":[8.53E2,8.46E2,7E0,1.2E2,7.26E2,4E0,3E0,1.05E2,1.5E1,6.62E2,6.4E1],"tree_param":{"num_deleted":"0","num_feature":"11","num_nodes":"11","size_leaf_vector":"0"}},{"base_weights":[8.880038E-3,-4.5300354E-3,6.3394845E-1,1.3063614E-2,-9.759664E-1,9.839042E-1,-3.3765522E-1,-1.8761174E-3,1.768219E0,-1.6005999E0,7.612839E-1,1.1023504E-1,2.0936787E0],"categories":[],"categories_nodes":[],"categories_segments":[],"categories_sizes":[],"default_left":[true,true,true,true,true,true,false,false,false,false,false,false,false],"id":35,"left_children":[1,3,5,7,9,11,-1,-1,-1,-1,-1,-1,-1],"loss_changes":[7.1837893E0,1.4411873E1,7.1169896E0,2.1747616E1,1.9932705E1,1.2881671E1,0E0,0E0,0E0,0E0,0E0,0E0,0E0],"parents":[2147483647,0,0,1,1,2,2,3,3,4,4,5,5],"right_children":[2,4,6,8,10,12,-1,-1,-1,-1,-1,-1,-1],"split_conditions":[3.0722223E2,2.661111E2,2.5E0,2.55E2,7.6E1,1.0506E4,-1.0129657E-1,-5.6283525E-4,5.304657E-1,-4.8018E-1,2.2838517E-1,3.3070516E-2,6.281036E-1],"split_indices":[9,9,7,9,0,1,0,0,0,0,0,0,0],"split_type":[0,0,0,0,0,0,0,0,0,0,0,0,0],"sum_hessian":[8.53E2,8.38E2,1.5E1,8.26E2,1.2E1,1.1E1,4E0,8.22E2,4E0,9E0,3E0,8E0,3E0],"tree_param":{"num_deleted":"0","num_feature":"11","num_nodes":"13","size_leaf_vector":"0"}},{"base_weights":[9.153013E-3,5.724146E-4,7.348999E-1,1.7059367E-2,-3.6263254E-1,-4.095815E-1,1.4009268E0,-6.516439E-3,3.1991222E0,-2.3564937E0,2.1222282E-2],"categories":[],"categories_nodes":[],"categories_segments":[],"categories_sizes":[],"default_left":[true,true,true,true,true,false,false,false,false,false,false],"id":36,"left_children":[1,3,5,7,9,-1,-1,-1,-1,-1,-1],"loss_changes":[5.3293433E0,5.1024923E0,9.343936E0,6.120359E1,2.84681E1,0E0,0E0,0E0,0E0,0E0,0E0],"parents":[2147483647,0,0,1,1,2,2,3,3,4,4],"right_children":[2,4,6,8,10,-1,-1,-1,-1,-1,-1],"split_conditions":[3.538889E2,2.1833334E2,5.25E1,2.0722223E2,2.2722223E2,-1.2287446E-1,4.2027807E-1,-1.9549318E-3,9.597367E-1,-7.0694816E-1,6.366685E-3],"split_indices":[9,9,0,9,9,0,0,0,0,0,0],"split_type":[0,0,0,0,0,0,0,0,0,0,0],"sum_hessian":[8.53E2,8.46E2,7E0,8.12E2,3.4E1,3E0,4E0,8.09E2,3E0,3E0,3.1E1],"tree_param":{"num_deleted":"0","num_feature":"11","num_nodes":"11","size_leaf_vector":"0"}},{"base_weights":[8.350399E-3,1.3625468E-1,-3.0505305E-2,-4.3242004E-2,4.071213E-1,2.3371734E-2,-3.3597255E-1,-1.2894397E-2,-2.4377394E-1,6.597928E-1,-3.9702135E-1,-1.0915378E-3,1.7209206E0,-1.7772225E0,-1.506795E-1],"categories":[],"categories_nodes":[],"categories_segments":[],"categories_sizes":[],"default_left":[true,true,true,true,true,true,true,false,false,false,false,false,false,false,false],"id":37,"left_children":[1,3,5,7,9,11,13,-1,-1,-1,-1,-1,-1,-1,-1],"loss_changes":[4.266628E0,9.776746E0,1.0869163E1,7.391068E-1,1.704057E1,2.3385675E1,2.5634933E1,0E0,0E0,0E0,0E0,0E0,0E0,0E0,0E0],"parents":[2147483647,0,0,1,1,2,2,3,3,4,4,5,5,6,6],"right_children":[2,4,6,8,10,12,14,-1,-1,-1,-1,-1,-1,-1,-1],"split_conditions":[7.5E0,8.73E3,8.763E3,8.52E3,9.906E3,1.0166667E2,1.7705E3,-3.868319E-3,-7.313219E-2,1.9793785E-1,-1.1910641E-1,-3.2746134E-4,5.162762E-1,-5.3316677E-1,-4.520385E-2],"split_indices":[6,1,1,1,1,9,2,0,0,0,0,0,0,0,0],"split_type":[0,0,0,0,0,0,0,0,0,0,0,0,0,0,0],"sum_hessian":[8.53E2,1.97E2,6.56E2,1.2E2,7.7E1,5.6E2,9.6E1,1.07E2,1.3E1,5.9E1,1.8E1,5.55E2,5E0,8E0,8.8E1],"tree_param":{"num_deleted":"0","num_feature":"11","num_nodes":"15","size_leaf_vector":"0"}},{"base_weights":[5.632829E-3,-4.957945E-3,4.995185E-1,8.408219E-3,-7.426697E-1,1.1673347E0,-1.2622325E-1,-2.6200593E-3,1.5224304E0,-1.7577915E0,2.922287E-1,2.5393677E-1,-6.333516E-1],"categories":[],"categories_nodes":[],"categories_segments":[],"categories_sizes":[],"default_left":[true,true,true,true,true,false,true,false,false,false,false,false,false],"id":38,"left_children":[1,3,5,7,9,-1,11,-1,-1,-1,-1,-1,-1],"loss_changes":[4.4848504E0,8.31131E0,7.963883E0,1.3853827E1,1.7299252E1,0E0,2.795973E0,0E0,0E0,0E0,0E0,0E0,0E0],"parents":[2147483647,0,0,1,1,2,2,3,3,4,4,6,6],"right_children":[2,4,6,8,10,-1,12,-1,-1,-1,-1,-1,-1],"split_conditions":[3.0722223E2,2.661111E2,5.35E1,2.588889E2,6.35E1,3.502004E-1,2.5E0,-7.860178E-4,4.5672914E-1,-5.273375E-1,8.766861E-2,7.618103E-2,-1.900055E-1],"split_indices":[9,9,0,9,0,0,7,0,0,0,0,0,0],"split_type":[0,0,0,0,0,0,0,0,0,0,0,0,0],"sum_hessian":[8.53E2,8.38E2,1.5E1,8.26E2,1.2E1,6E0,9E0,8.23E2,3E0,5E0,7E0,6E0,3E0],"tree_param":{"num_deleted":"0","num_feature":"11","num_nodes":"13","size_leaf_vector":"0"}},{"base_weights":[4.828974E-3,-3.983903E-3,5.3571427E-1,1.1403015E-2,-6.093663E-1,1.4501089E0,-1.0915028E-1,-5.0185947E-3,9.661048E-1,-1.1845604E0,1.0486908E0,2.5368118E-1,-5.383504E-1],"categories":[],"categories_nodes":[],"categories_segments":[],"categories_sizes":[],"default_left":[true,true,true,true,true,false,true,false,false,false,false,false,false],"id":39,"left_children":[1,3,5,7,9,-1,11,-1,-1,-1,-1,-1,-1],"loss_changes":[4.0113077E0,7.891995E0,8.730089E0,1.2980037E1,2.3754513E1,0E0,2.1227088E0,0E0,0E0,0E0,0E0,0E0,0E0],"parents":[2147483647,0,0,1,1,2,2,3,3,4,4,6,6],"right_children":[2,4,6,8,10,-1,12,-1,-1,-1,-1,-1,-1],"split_conditions":[1.0395E4,9.906E3,5E-1,2.55E2,2.5E0,4.350327E-1,2.5E0,-1.5055785E-3,2.8983146E-1,-3.5536814E-1,3.1460726E-1,7.610436E-2,-1.6150513E-1],"split_indices":[1,1,7,9,7,0,7,0,0,0,0,0,0],"split_type":[0,0,0,0,0,0,0,0,0,0,0,0,0],"sum_hessian":[8.53E2,8.42E2,1.1E1,8.24E2,1.8E1,3E0,8E0,8.13E2,1.1E1,1.4E1,4E0,5E0,3E0],"tree_param":{"num_deleted":"0","num_feature":"11","num_nodes":"13","size_leaf_vector":"0"}},{"base_weights":[5.4734005E-3,2.905867E-2,-1.73703E-1,-1.02127325E-2,2.4762566E0,-2.8132749E0,8.456567E-2,2.5501659E-3,-2.2554089E-1,9.8633647E-1,-1.8333639E-1],"categories":[],"categories_nodes":[],"categories_segments":[],"categories_sizes":[],"default_left":[true,true,true,true,false,false,true,false,false,false,false],"id":40,"left_children":[1,3,5,7,-1,-1,9,-1,-1,-1,-1],"loss_changes":[3.6325338E0,7.3019485E1,6.888559E1,2.062884E0,0E0,0E0,2.32516E1,0E0,0E0,0E0,0E0],"parents":[2147483647,0,0,1,1,2,2,3,3,6,6],"right_children":[2,4,6,8,-1,-1,10,-1,-1,-1,-1],"split_conditions":[1.1E2,1.0055556E2,1.16111115E2,5.888889E1,7.42877E-1,-8.439825E-1,1.4888889E2,7.650498E-4,-6.766227E-2,2.9590094E-1,-5.500092E-2],"split_indices":[9,9,9,9,0,0,9,0,0,0,0],"split_type":[0,0,0,0,0,0,0,0,0,0,0],"sum_hessian":[8.53E2,7.56E2,9.7E1,7.47E2,9E0,6E0,9.1E1,7.08E2,3.9E1,1.9E1,7.2E1],"tree_param":{"num_deleted":"0","num_feature":"11","num_nodes":"11","size_leaf_vector":"0"}},{"base_weights":[4.0871566E-3,-4.0297895E-3,4.9312702E-1,1.1905761E-2,-3.9722326E-1,1.3254904E0,-9.5378526E-2,-8.132697E-3,2.7178242E0,-2.0733287E0,-2.2279866E-2,-3.2499477E-1,1.7511423E-1],"categories":[],"categories_nodes":[],"categories_segments":[],"categories_sizes":[],"default_left":[true,true,true,true,true,false,true,false,false,false,false,false,false],"id":41,"left_children":[1,3,5,7,9,-1,11,-1,-1,-1,-1,-1,-1],"loss_changes":[3.4038622E0,5.3087506E0,7.2371764E0,4.4257595E1,2.0600094E1,0E0,8.5393846E-1,0E0,0E0,0E0,0E0,0E0,0E0],"parents":[2147483647,0,0,1,1,2,2,3,3,4,4,6,6],"right_children":[2,4,6,8,10,-1,12,-1,-1,-1,-1,-1,-1],"split_conditions":[1.0395E4,2.1833334E2,5.8E1,2.0722223E2,2.2722223E2,3.976471E-1,3.35E2,-2.4398093E-3,8.153473E-1,-6.2199867E-1,-6.68396E-3,-9.749844E-2,5.253427E-2],"split_indices":[1,9,0,9,9,0,9,0,0,0,0,0,0],"split_type":[0,0,0,0,0,0,0,0,0,0,0,0,0],"sum_hessian":[8.53E2,8.42E2,1.1E1,8.12E2,3E1,3E0,8E0,8.09E2,3E0,3E0,2.7E1,4E0,4E0],"tree_param":{"num_deleted":"0","num_feature":"11","num_nodes":"13","size_leaf_vector":"0"}},{"base_weights":[4.7429604E-3,9.944389E-2,-2.9907981E-2,-1.0089257E-2,4.4850877E-1,1.4994563E-2,-3.9498636E-1,-1.8242193E-2,1.7000146E-1,-6.9201425E-2,7.502747E-1,-1.6291672E-2,2.1915865E0,-2.248224E0,-1.11429244E-1],"categories":[],"categories_nodes":[],"categories_segments":[],"categories_sizes":[],"default_left":[true,true,true,true,true,true,true,true,true,false,false,false,false,false,false],"id":42,"left_children":[1,3,5,-1,9,11,13,-1,-1,-1,-1,-1,-1,-1,-1],"loss_changes":[2.8178663E0,8.807435E0,1.0328932E1,2.7065533E-1,8.748262E0,3.844593E1,3.550786E1,0E0,0E0,0E0,0E0,0E0,0E0,0E0,0E0],"parents":[2147483647,0,0,1,1,2,2,3,3,4,4,5,5,6,6],"right_children":[2,4,6,-1,10,12,14,-1,-1,-1,-1,-1,-1,-1,-1],"split_conditions":[5.65E1,2.7777779E1,1.1E2,-3.0267772E-3,5.5E0,1.0222223E2,1.1833333E2,-5.472658E-3,5.1000442E-2,-2.0760428E-2,2.2508243E-1,-4.8875017E-3,6.5747595E-1,-6.744672E-1,-3.3428773E-2],"split_indices":[0,9,9,1,6,9,9,2147483647,2147483647,0,0,0,0,0,0],"split_type":[0,0,0,0,0,0,0,0,0,0,0,0,0,0,0],"sum_hessian":[8.53E2,2.27E2,6.26E2,1.75E2,5.2E1,5.6E2,6.6E1,1.7E2,5E0,2E1,3.2E1,5.55E2,5E0,6E0,6E1],"tree_param":{"num_deleted":"2","num_feature":"11","num_nodes":"15","size_leaf_vector":"0"}},{"base_weights":[3.8316806E-3,-3.4798211E-3,4.4431195E-1,1.946624E-2,-2.8440595E-1,1.2159119E0,-9.773671E-2,-6.6915457E-3,1.5723684E0,-2.9799232E0,9.554924E-2,2.2132492E-1,-4.7428384E-1],"categories":[],"categories_nodes":[],"categories_segments":[],"categories_sizes":[],"default_left":[true,true,true,true,true,false,true,false,false,false,false,false,false],"id":43,"left_children":[1,3,5,7,9,-1,11,-1,-1,-1,-1,-1,-1],"loss_changes":[2.7614484E0,5.463604E0,6.2119436E0,3.1878021E1,6.640144E1,0E0,1.6364716E0,0E0,0E0,0E0,0E0,0E0,0E0],"parents":[2147483647,0,0,1,1,2,2,3,3,4,4,6,6],"right_children":[2,4,6,8,10,-1,12,-1,-1,-1,-1,-1,-1],"split_conditions":[1.0395E4,1.4888889E2,5E-1,1.26666664E2,1.5666666E2,3.6477357E-1,2.5E0,-2.0074637E-3,4.7171053E-1,-8.93977E-1,2.8664773E-2,6.639748E-2,-1.4228515E-1],"split_indices":[1,9,7,9,9,0,7,0,0,0,0,0,0],"split_type":[0,0,0,0,0,0,0,0,0,0,0,0,0],"sum_hessian":[8.53E2,8.42E2,1.1E1,7.81E2,6.1E1,3E0,8E0,7.71E2,1E1,5E0,5.6E1,5E0,3E0],"tree_param":{"num_deleted":"0","num_feature":"11","num_nodes":"13","size_leaf_vector":"0"}},{"base_weights":[2.3077026E-3,2.30991E-2,-1.5556824E-1,2.7363228E-3,2.2094705E0,-1.8457047E0,3.1185191E-2,-3.9158813E-3,4.9950027E-1,3.1556943E-1,-3.8685217E-1],"categories":[],"categories_nodes":[],"categories_segments":[],"categories_sizes":[],"default_left":[true,true,true,true,false,false,true,false,false,false,false],"id":44,"left_children":[1,3,5,7,-1,-1,9,-1,-1,-1,-1],"loss_changes":[2.8205676E0,3.377299E1,3.1736553E1,2.5008218E0,0E0,0E0,1.1422378E1,0E0,0E0,0E0,0E0],"parents":[2147483647,0,0,1,1,2,2,3,3,6,6],"right_children":[2,4,6,8,-1,-1,10,-1,-1,-1,-1],"split_conditions":[1.1E2,1.03888885E2,1.1722222E2,9.944444E1,6.628412E-1,-5.537114E-1,1.05E1,-1.1747645E-3,1.4985009E-1,9.467083E-2,-1.1605566E-1],"split_indices":[9,9,9,9,0,0,6,0,0,0,0],"split_type":[0,0,0,0,0,0,0,0,0,0,0],"sum_hessian":[8.53E2,7.56E2,9.7E1,7.52E2,4E0,7E0,9E1,7.45E2,7E0,5.4E1,3.6E1],"tree_param":{"num_deleted":"0","num_feature":"11","num_nodes":"11","size_leaf_vector":"0"}},{"base_weights":[2.4443723E-3,-5.940788E-2,4.9007937E-2,-7.867707E-2,9.708034E-1,2.4739824E-2,8.688224E-1,-3.7329614E-2,-7.863213E-1,5.3268135E-2,-1.3292183E0,1.5131714E0,-4.2402866E-1],"categories":[],"categories_nodes":[],"categories_segments":[],"categories_sizes":[],"default_left":[true,true,true,true,false,true,true,false,false,false,false,false,false],"id":45,"left_children":[1,3,5,7,-1,9,11,-1,-1,-1,-1,-1,-1],"loss_changes":[2.4740667E0,7.554284E0,9.6842375E0,1.059158E1,0E0,1.8714333E1,1.3587547E1,0E0,0E0,0E0,0E0,0E0,0E0],"parents":[2147483647,0,0,1,1,2,2,3,3,5,5,6,6],"right_children":[2,4,6,8,-1,10,12,-1,-1,-1,-1,-1,-1],"split_conditions":[2.5E0,1.0506E4,9.837E3,2.661111E2,2.9124102E-1,9.585E3,1.0116E4,-1.1198885E-2,-2.358964E-1,1.5980441E-2,-3.987655E-1,4.5395145E-1,-1.272086E-1],"split_indices":[7,1,1,9,0,1,1,0,0,0,0,0,0],"split_type":[0,0,0,0,0,0,0,0,0,0,0,0,0],"sum_hessian":[8.53E2,3.66E2,4.87E2,3.62E2,4E0,4.76E2,1.1E1,3.45E2,1.7E1,4.69E2,7E0,7E0,4E0],"tree_param":{"num_deleted":"0","num_feature":"11","num_nodes":"13","size_leaf_vector":"0"}},{"base_weights":[1.6695928E-3,-1.7361661E-2,1.2987112E-1,-3.7643997E-4,-6.689983E-1,1.8475192E0,-2.1066466E-2,-7.748123E-3,5.341835E-1,-1.1108735E0,5.6459045E-1,-8.760894E-1,8.646973E-2],"categories":[],"categories_nodes":[],"categories_segments":[],"categories_sizes":[],"default_left":[true,true,true,true,true,false,true,false,false,false,false,false,false],"id":46,"left_children":[1,3,5,7,9,-1,11,-1,-1,-1,-1,-1,-1],"loss_changes":[2.0952637E0,8.278253E0,2.889436E1,2.8969407E0,1.2238316E1,0E0,9.881587E0,0E0,0E0,0E0,0E0,0E0,0E0],"parents":[2147483647,0,0,1,1,2,2,3,3,4,4,6,6],"right_children":[2,4,6,8,10,-1,12,-1,-1,-1,-1,-1,-1],"split_conditions":[9.198E3,1.08888885E2,9.243E3,9.944444E1,3.3E1,5.542558E-1,9.309E3,-2.324437E-3,1.6025506E-1,-3.3326206E-1,1.6937715E-1,-2.6282683E-1,2.5940921E-2],"split_indices":[1,9,1,9,5,0,1,0,0,0,0,0,0],"split_type":[0,0,0,0,0,0,0,0,0,0,0,0,0],"sum_hessian":[8.53E2,7.45E2,1.08E2,7.29E2,1.6E1,6E0,1.02E2,7.22E2,7E0,1.2E1,4E0,9E0,9.3E1],"tree_param":{"num_deleted":"0","num_feature":"11","num_nodes":"13","size_leaf_vector":"0"}},{"base_weights":[2.2602845E-3,-4.2692083E-3,3.0695596E-1,1.066075E-2,-4.2341086E-1,6.4137775E-1,-2.4125841E-1,-5.1865173E-3,2.149994E0,1.2163584E-1,-1.1223074E0,6.871033E-2,1.0209787E0,-3.677419E-1,5.8542886E-3],"categories":[],"categories_nodes":[],"categories_segments":[],"categories_sizes":[],"default_left":[true,true,true,true,true,true,true,false,false,false,false,false,false,true,true],"id":47,"left_children":[1,3,5,7,9,11,-1,-1,-1,-1,-1,-1,-1,-1,-1],"loss_changes":[1.7069504E0,5.276324E0,3.7642403E0,2.7664059E1,1.1456545E1,2.3981657E0,2.8775972E-1,0E0,0E0,0E0,0E0,0E0,0E0,0E0,0E0],"parents":[2147483647,0,0,1,1,2,2,3,3,4,4,5,5,6,6],"right_children":[2,4,6,8,10,12,-1,-1,-1,-1,-1,-1,-1,-1,-1],"split_conditions":[3.0722223E2,2.1833334E2,6.35E1,2.0722223E2,2.75E1,5.25E1,-7.2377525E-2,-1.5559553E-3,6.449982E-1,3.6490753E-2,-3.3669224E-1,2.0613099E-2,3.062936E-1,-1.1032258E-1,1.7562866E-3],"split_indices":[9,9,0,9,5,0,1,0,0,0,0,0,0,2147483647,2147483647],"split_type":[0,0,0,0,0,0,0,0,0,0,0,0,0,0,0],"sum_hessian":[8.53E2,8.38E2,1.5E1,8.12E2,2.6E1,9E0,6E0,8.09E2,3E0,1.6E1,1E1,5E0,4E0,3E0,3E0],"tree_param":{"num_deleted":"2","num_feature":"11","num_nodes":"15","size_leaf_vector":"0"}},{"base_weights":[3.677318E-3,6.432794E-2,-2.6298003E-2,-2.1524872E-3,3.1796446E-1,1.5365128E-2,-2.7037767E-1,2.8464293E-2,-1.1492056E0,-4.48563E-2,1.0321934E0,-1.0808474E-2,4.2126435E-1,-1.4684416E0,-1.0425077E-1],"categories":[],"categories_nodes":[],"categories_segments":[],"categories_sizes":[],"default_left":[true,true,true,true,true,true,true,false,false,false,false,false,false,false,false],"id":48,"left_children":[1,3,5,7,9,11,13,-1,-1,-1,-1,-1,-1,-1,-1],"loss_changes":[1.5613018E0,4.790823E0,5.8597093E0,8.105282E0,1.5427988E1,5.261839E0,1.6259317E1,0E0,0E0,0E0,0E0,0E0,0E0,0E0,0E0],"parents":[2147483647,0,0,1,1,2,2,3,3,4,4,5,5,6,6],"right_children":[2,4,6,8,10,12,14,-1,-1,-1,-1,-1,-1,-1,-1],"split_conditions":[1.05E1,9.306E3,8.763E3,1.6666667E2,5.5E0,3.3333335E0,1.7705E3,8.539288E-3,-3.4476167E-1,-1.345689E-2,3.0965805E-1,-3.2425425E-3,1.2637931E-1,-4.405325E-1,-3.127523E-2],"split_indices":[6,1,1,9,6,9,2,0,0,0,0,0,0,0,0],"split_type":[0,0,0,0,0,0,0,0,0,0,0,0,0,0,0],"sum_hessian":[8.53E2,2.81E2,5.72E2,2.25E2,5.6E1,4.91E2,8.1E1,2.22E2,3E0,3.9E1,1.7E1,4.64E2,2.7E1,7E0,7.4E1],"tree_param":{"num_deleted":"0","num_feature":"11","num_nodes":"15","size_leaf_vector":"0"}},{"base_weights":[1.2120114E-3,-4.5515444E-2,3.6393225E-2,-6.081034E-2,7.7151054E-1,7.040339E-3,5.0227463E-1,-1.0533815E-2,-4.4670832E-1,2.9682502E-2,-1.7361526E0,1.8339069E-1,1.6329676E0],"categories":[],"categories_nodes":[],"categories_segments":[],"categories_sizes":[],"default_left":[true,true,true,true,false,true,true,false,false,false,false,false,false],"id":49,"left_children":[1,3,5,7,-1,9,11,-1,-1,-1,-1,-1,-1],"loss_changes":[1.4121723E0,4.751891E0,6.690124E0,7.0674706E0,0E0,1.8468521E1,9.557821E0,0E0,0E0,0E0,0E0,0E0,0E0],"parents":[2147483647,0,0,1,1,2,2,3,3,5,5,6,6],"right_children":[2,4,6,8,-1,10,12,-1,-1,-1,-1,-1,-1],"split_conditions":[2.5E0,1.0506E4,1.5666666E2,1.4944446E2,2.3145317E-1,1.4833334E2,1.3E1,-3.1601447E-3,-1.340125E-1,8.904751E-3,-5.2084583E-1,5.501721E-2,4.898903E-1],"split_indices":[7,1,9,9,0,9,6,0,0,0,0,0,0],"split_type":[0,0,0,0,0,0,0,0,0,0,0,0,0],"sum_hessian":[8.53E2,3.66E2,4.87E2,3.62E2,4E0,4.61E2,2.6E1,3.23E2,3.9E1,4.58E2,3E0,2.3E1,3E0],"tree_param":{"num_deleted":"0","num_feature":"11","num_nodes":"13","size_leaf_vector":"0"}},{"base_weights":[1.2942337E-3,-1.115727E-2,1.4158499E-1,9.173374E-3,-1.9993763E0,-5.4471426E-2,7.6243234E-1,-1.0628358E-2,1.1860211E0,1.7663921E-1,-7.2150165E-1,1.7904108E-2,1.4182671E0],"categories":[],"categories_nodes":[],"categories_segments":[],"categories_sizes":[],"default_left":[true,true,true,true,false,true,true,false,false,false,false,false,false],"id":50,"left_children":[1,3,5,7,-1,9,11,-1,-1,-1,-1,-1,-1],"loss_changes":[1.5000263E0,3.1947802E1,8.645069E0,1.8307858E1,0E0,9.015172E0,8.2247095E0,0E0,0E0,0E0,0E0,0E0,0E0],"parents":[2147483647,0,0,1,1,2,2,3,3,5,5,6,6],"right_children":[2,4,6,8,-1,10,12,-1,-1,-1,-1,-1,-1],"split_conditions":[1.5666666E2,1.4888889E2,1.35E1,1.26666664E2,-5.998129E-1,7.5E0,6.5E0,-3.1885076E-3,3.5580635E-1,5.2991766E-2,-2.164505E-1,5.3712325E-3,4.2548016E-1],"split_indices":[9,9,6,9,0,6,4,0,0,0,0,0,0],"split_type":[0,0,0,0,0,0,0,0,0,0,0,0,0],"sum_hessian":[8.53E2,7.86E2,6.7E1,7.81E2,5E0,5.3E1,1.4E1,7.71E2,1E1,4.1E1,1.2E1,8E0,6E0],"tree_param":{"num_deleted":"0","num_feature":"11","num_nodes":"13","size_leaf_vector":"0"}},{"base_weights":[9.770382E-4,-6.0051647E-3,2.1602376E-1,3.83492E-3,-1.3625742E0,6.9336957E-1,-1.3821071E-1,-4.428934E-3,1.1395746E0,1.2363586E0,1.00253634E-1,6.248894E-1,-5.75916E-1],"categories":[],"categories_nodes":[],"categories_segments":[],"categories_sizes":[],"default_left":[true,true,true,true,false,true,true,false,false,false,false,false,false],"id":51,"left_children":[1,3,5,7,-1,9,11,-1,-1,-1,-1,-1,-1],"loss_changes":[1.2891755E0,1.112184E1,4.8529863E0,7.7957935E0,0E0,3.4928174E0,7.091884E0,0E0,0E0,0E0,0E0,0E0,0E0],"parents":[2147483647,0,0,1,1,2,2,3,3,5,5,6,6],"right_children":[2,4,6,8,-1,10,12,-1,-1,-1,-1,-1,-1],"split_conditions":[2.783333E2,2.661111E2,1.0071E4,2.588889E2,-4.087723E-1,2.75E1,5E-1,-1.3286802E-3,3.418724E-1,3.709076E-1,3.0076092E-2,1.8746682E-1,-1.727748E-1],"split_indices":[9,9,1,9,0,5,7,0,0,0,0,0,0],"split_type":[0,0,0,0,0,0,0,0,0,0,0,0,0],"sum_hessian":[8.53E2,8.29E2,2.4E1,8.26E2,3E0,9E0,1.5E1,8.23E2,3E0,3E0,6E0,5E0,1E1],"tree_param":{"num_deleted":"0","num_feature":"11","num_nodes":"13","size_leaf_vector":"0"}},{"base_weights":[1.9011624E-3,-3.2778955E-3,3.140869E-1,8.319951E-3,-4.5954385E-1,-4.166042E-1,7.313446E-1,-4.874996E-3,6.02172E-1,-1.4193859E0,1.0654163E-1,-3.1260174E-2,1.0715724E0],"categories":[],"categories_nodes":[],"categories_segments":[],"categories_sizes":[],"default_left":[true,true,true,true,true,false,true,false,false,false,false,false,false],"id":52,"left_children":[1,3,5,7,9,-1,11,-1,-1,-1,-1,-1,-1],"loss_changes":[1.3870935E0,4.4829593E0,5.1824546E0,6.489052E0,1.1864077E1,0E0,2.695086E0,0E0,0E0,0E0,0E0,0E0,0E0],"parents":[2147483647,0,0,1,1,2,2,3,3,4,4,6,6],"right_children":[2,4,6,8,10,-1,12,-1,-1,-1,-1,-1,-1],"split_conditions":[1.0395E4,9.906E3,2.35E1,2.3555556E2,6E1,-1.2498126E-1,3.35E2,-1.4624988E-3,1.806516E-1,-4.258158E-1,3.196249E-2,-9.378052E-3,3.2147175E-1],"split_indices":[1,1,5,9,0,0,9,0,0,0,0,0,0],"split_type":[0,0,0,0,0,0,0,0,0,0,0,0,0],"sum_hessian":[8.53E2,8.42E2,1.1E1,8.24E2,1.8E1,4E0,7E0,8.09E2,1.5E1,5E0,1.3E1,3E0,4E0],"tree_param":{"num_deleted":"0","num_feature":"11","num_nodes":"13","size_leaf_vector":"0"}},{"base_weights":[1.2342803E-3,6.1865E-2,-2.0941822E-2,-1.1249184E-2,3.0667552E-1,1.0540482E-2,-2.7690867E-1,5.0733504E-3,-4.1682324E-1,2.9924655E-2,5.698514E-1,-8.073011E-3,1.7425295E0,-1.5849828E0,-1.2325874E-1],"categories":[],"categories_nodes":[],"categories_segments":[],"categories_sizes":[],"default_left":[true,true,true,true,true,true,true,false,false,false,false,false,false,false,false],"id":53,"left_children":[1,3,5,7,9,11,13,-1,-1,-1,-1,-1,-1,-1,-1],"loss_changes":[1.1548241E0,4.1271477E0,5.0775056E0,1.1979436E0,3.809053E0,1.8192404E1,1.3281908E1,0E0,0E0,0E0,0E0,0E0,0E0,0E0,0E0],"parents":[2147483647,0,0,1,1,2,2,3,3,4,4,5,5,6,6],"right_children":[2,4,6,8,10,12,14,-1,-1,-1,-1,-1,-1,-1,-1],"split_conditions":[5.65E1,8.643E3,1.1E2,5.9444443E1,2.25E1,1.0444444E2,1.15E2,1.5220052E-3,-1.2504698E-1,8.977397E-3,1.7095542E-1,-2.4219034E-3,5.227589E-1,-4.7549483E-1,-3.6977623E-2],"split_indices":[0,1,9,9,5,9,9,0,0,0,0,0,0,0,0],"split_type":[0,0,0,0,0,0,0,0,0,0,0,0,0,0,0],"sum_hessian":[8.53E2,2.27E2,6.26E2,1.77E2,5E1,5.6E2,6.6E1,1.73E2,4E0,2.6E1,2.4E1,5.57E2,3E0,4E0,6.2E1],"tree_param":{"num_deleted":"0","num_feature":"11","num_nodes":"15","size_leaf_vector":"0"}},{"base_weights":[1.0890919E-3,1.0095341E-2,-1.6580547E-1,-2.0487974E-3,1.6485544E0,-1.5544357E0,4.954082E-2,-1.1506324E-2,5.027624E-1,1.9452386E-1,-8.934555E-1],"categories":[],"categories_nodes":[],"categories_segments":[],"categories_sizes":[],"default_left":[true,true,true,true,false,false,true,false,false,false,false],"id":54,"left_children":[1,3,5,7,-1,-1,9,-1,-1,-1,-1],"loss_changes":[1.2916701E0,1.6226738E1,1.3388624E1,3.8940578E0,0E0,0E0,6.126853E0,0E0,0E0,0E0,0E0],"parents":[2147483647,0,0,1,1,2,2,3,3,6,6],"right_children":[2,4,6,8,-1,-1,10,-1,-1,-1,-1],"split_conditions":[2.1833334E2,2.0722223E2,2.2722223E2,9.648E3,4.9456635E-1,-4.6633074E-1,4.05E1,-3.4518973E-3,1.5082872E-1,5.835716E-2,-2.6803666E-1],"split_indices":[9,9,9,1,0,0,5,0,0,0,0],"split_type":[0,0,0,0,0,0,0,0,0,0,0],"sum_hessian":[8.53E2,8.12E2,4.1E1,8.09E2,3E0,3E0,3.8E1,7.97E2,1.2E1,3.5E1,3E0],"tree_param":{"num_deleted":"0","num_feature":"11","num_nodes":"11","size_leaf_vector":"0"}},{"base_weights":[6.4295117E-4,1.4154138E-2,-1.4061971E-1,-7.486506E-4,8.981769E-1,-1.6225166E0,3.4766495E-2,1.6048392E-2,-7.088992E-1,-2.0275243E-1,1.2892815E0,1.0217991E0,-8.831905E-2],"categories":[],"categories_nodes":[],"categories_segments":[],"categories_sizes":[],"default_left":[true,true,true,true,true,false,true,false,false,false,false,false,false],"id":55,"left_children":[1,3,5,7,9,-1,11,-1,-1,-1,-1,-1,-1],"loss_changes":[1.6397551E0,1.033075E1,1.9662048E1,9.240732E0,6.381735E0,0E0,8.774993E0,0E0,0E0,0E0,0E0,0E0,0E0],"parents":[2147483647,0,0,1,1,2,2,3,3,4,4,6,6],"right_children":[2,4,6,8,10,-1,12,-1,-1,-1,-1,-1,-1],"split_conditions":[1.4888889E2,1.26666664E2,1.5666666E2,1.1E2,8.877E3,-4.86755E-1,1.6666666E2,4.8145177E-3,-2.1266977E-1,-6.082573E-2,3.8678446E-1,3.0653974E-1,-2.6495716E-2],"split_indices":[9,9,9,9,1,0,9,0,0,0,0,0,0],"split_type":[0,0,0,0,0,0,0,0,0,0,0,0,0],"sum_hessian":[8.53E2,7.81E2,7.2E1,7.71E2,1E1,5E0,6.7E1,7.56E2,1.5E1,3E0,7E0,5E0,6.2E1],"tree_param":{"num_deleted":"0","num_feature":"11","num_nodes":"13","size_leaf_vector":"0"}},{"base_weights":[1.3913435E-4,6.9414442E-3,-1.756711E-1,9.135486E-4,7.126748E-1,-7.9255676E-1,2.6628848E-2,2.4279338E-1,-1.4343662E-2,4.6141356E-1,-1.9475785E-1],"categories":[],"categories_nodes":[],"categories_segments":[],"categories_sizes":[],"default_left":[true,true,true,true,false,false,true,false,false,false,false],"id":56,"left_children":[1,3,5,7,-1,-1,9,-1,-1,-1,-1],"loss_changes":[1.0273621E0,3.516177E0,4.0567846E0,3.0476563E0,0E0,0E0,2.868492E0,0E0,0E0,0E0,0E0],"parents":[2147483647,0,0,1,1,2,2,3,3,6,6],"right_children":[2,4,6,8,-1,-1,10,-1,-1,-1,-1],"split_conditions":[9.906E3,9.846E3,1.0035E4,2.5E0,2.1380244E-1,-2.3776704E-1,5E-1,7.2838016E-2,-4.3030987E-3,1.3842407E-1,-5.8427356E-2],"split_indices":[1,1,1,6,0,0,7,0,0,0,0],"split_type":[0,0,0,0,0,0,0,0,0,0,0],"sum_hessian":[8.53E2,8.24E2,2.9E1,8.2E2,4E0,5E0,2.4E1,4.6E1,7.74E2,7E0,1.7E1],"tree_param":{"num_deleted":"0","num_feature":"11","num_nodes":"11","size_leaf_vector":"0"}},{"base_weights":[5.3400284E-4,9.051587E-3,-1.572713E-1,-1.4496051E-3,1.4256872E0,-1.3187357E0,2.4206767E-2,-1.0099889E-2,4.601888E-1,7.6911926E-1,-1.4334658E-1],"categories":[],"categories_nodes":[],"categories_segments":[],"categories_sizes":[],"default_left":[true,true,true,true,false,false,true,false,false,false,false],"id":57,"left_children":[1,3,5,7,-1,-1,9,-1,-1,-1,-1],"loss_changes":[1.1548374E0,1.2130435E1,9.370102E0,3.2565057E0,0E0,0E0,5.4480677E0,0E0,0E0,0E0,0E0],"parents":[2147483647,0,0,1,1,2,2,3,3,6,6],"right_children":[2,4,6,8,-1,-1,10,-1,-1,-1,-1],"split_conditions":[2.1833334E2,2.0722223E2,2.2722223E2,9.648E3,4.2770618E-1,-3.9562073E-1,9.459E3,-3.0299667E-3,1.3805665E-1,2.307358E-1,-4.3003976E-2],"split_indices":[9,9,9,1,0,0,1,0,0,0,0],"split_type":[0,0,0,0,0,0,0,0,0,0,0],"sum_hessian":[8.53E2,8.12E2,4.1E1,8.09E2,3E0,3E0,3.8E1,7.97E2,1.2E1,5E0,3.3E1],"tree_param":{"num_deleted":"0","num_feature":"11","num_nodes":"11","size_leaf_vector":"0"}},{"base_weights":[1.6172132E-3,1.3834281E-2,-1.1740713E-1,1.5410834E-3,1.1980133E0,-8.6372787E-1,2.6227025E-2,1.4610557E-2,-5.498119E-1,2.0484707E-1,-1.4069324E0,7.8990173E-1,-6.897419E-2],"categories":[],"categories_nodes":[],"categories_segments":[],"categories_sizes":[],"default_left":[true,true,true,true,false,true,true,false,false,false,false,false,false],"id":58,"left_children":[1,3,5,7,-1,9,11,-1,-1,-1,-1,-1,-1],"loss_changes":[1.2496067E0,1.1334634E1,8.643731E0,5.6014605E0,0E0,8.410528E0,5.2526417E0,0E0,0E0,0E0,0E0,0E0,0E0],"parents":[2147483647,0,0,1,1,2,2,3,3,5,5,6,6],"right_children":[2,4,6,8,-1,10,12,-1,-1,-1,-1,-1,-1],"split_conditions":[1.3555554E2,1.26666664E2,1.5666666E2,1.1E2,3.59404E-1,6.2E1,1.6666666E2,4.3831673E-3,-1.6494358E-1,6.145412E-2,-4.220797E-1,2.3697053E-1,-2.0692257E-2],"split_indices":[9,9,9,9,0,0,9,0,0,0,0,0,0],"split_type":[0,0,0,0,0,0,0,0,0,0,0,0,0],"sum_hessian":[8.53E2,7.76E2,7.7E1,7.71E2,5E0,1E1,6.7E1,7.56E2,1.5E1,4E0,6E0,5E0,6.2E1],"tree_param":{"num_deleted":"0","num_feature":"11","num_nodes":"13","size_leaf_vector":"0"}},{"base_weights":[1.3227427E-3,-3.0896203E-3,3.1243134E-1,2.4141883E-3,-6.645813E-1,9.0754193E-1,-1.8845282E-1,-3.98771E-3,6.721077E-1],"categories":[],"categories_nodes":[],"categories_segments":[],"categories_sizes":[],"default_left":[true,true,true,true,false,false,false,false,false],"id":59,"left_children":[1,3,5,7,-1,-1,-1,-1,-1],"loss_changes":[1.1779475E0,3.0885062E0,4.090064E0,3.6222425E0,0E0,0E0,0E0,0E0,0E0],"parents":[2147483647,0,0,1,1,2,2,3,3],"right_children":[2,4,6,8,-1,-1,-1,-1,-1],"split_conditions":[1.0434E4,3.3333334E2,1.0551E4,3.0222223E2,-1.993744E-1,2.722626E-1,-5.653585E-2,-1.1963131E-3,2.0163232E-1],"split_indices":[1,9,1,9,0,0,0,0,0],"split_type":[0,0,0,0,0,0,0,0,0],"sum_hessian":[8.53E2,8.44E2,9E0,8.4E2,4E0,3E0,6E0,8.35E2,5E0],"tree_param":{"num_deleted":"0","num_feature":"11","num_nodes":"9","size_leaf_vector":"0"}},{"base_weights":[1.6854673E-3,-2.682789E-3,2.6497978E-1,7.28984E-3,-3.9503115E-1,7.809906E-1,-8.874789E-2,-1.9464875E-3,4.2273584E-1,-1.0823805E0,9.638468E-2,-2.7516556E-1,2.0418294E-1],"categories":[],"categories_nodes":[],"categories_segments":[],"categories_sizes":[],"default_left":[true,true,true,true,true,false,true,false,false,false,false,false,false],"id":60,"left_children":[1,3,5,7,9,-1,11,-1,-1,-1,-1,-1,-1],"loss_changes":[9.8664993E-1,3.3149083E0,2.7633162E0,3.1758292E0,7.406236E0,0E0,7.6923466E-1,0E0,0E0,0E0,0E0,0E0,0E0],"parents":[2147483647,0,0,1,1,2,2,3,3,4,4,6,6],"right_children":[2,4,6,8,10,-1,12,-1,-1,-1,-1,-1,-1],"split_conditions":[1.0395E4,9.906E3,5.8E1,9.648E3,2.5E0,2.3429719E-1,8E0,-5.8394624E-4,1.2682076E-1,-3.2471418E-1,2.8915405E-2,-8.254967E-2,6.1254885E-2],"split_indices":[1,1,0,1,6,0,6,0,0,0,0,0,0],"split_type":[0,0,0,0,0,0,0,0,0,0,0,0,0],"sum_hessian":[8.53E2,8.42E2,1.1E1,8.24E2,1.8E1,3E0,8E0,8.09E2,1.5E1,6E0,1.2E1,5E0,3E0],"tree_param":{"num_deleted":"0","num_feature":"11","num_nodes":"13","size_leaf_vector":"0"}},{"base_weights":[1.3320973E-3,1.1611356E-2,-1.0617371E-1,1.7360733E-3,5.96891E-1,-1.142807E0,1.6848972E-2,1.185017E-2,-4.2503104E-1,9.7998726E-1,-1.5147182E-1,-1.1966024E-1,4.6355304E-1],"categories":[],"categories_nodes":[],"categories_segments":[],"categories_sizes":[],"default_left":[true,true,true,true,true,false,true,false,false,false,false,false,false],"id":61,"left_children":[1,3,5,7,9,-1,11,-1,-1,-1,-1,-1,-1],"loss_changes":[9.496469E-1,4.5282555E0,9.622471E0,3.3559759E0,4.172357E0,0E0,4.4349523E0,0E0,0E0,0E0,0E0,0E0,0E0],"parents":[2147483647,0,0,1,1,2,2,3,3,4,4,6,6],"right_children":[2,4,6,8,10,-1,12,-1,-1,-1,-1,-1,-1],"split_conditions":[1.4888889E2,1.26666664E2,1.5666666E2,1.1E2,1.15E1,-3.428421E-1,1.35E1,3.555051E-3,-1.2750931E-1,2.9399619E-1,-4.544155E-2,-3.5898075E-2,1.3906592E-1],"split_indices":[9,9,9,9,6,0,6,0,0,0,0,0,0],"split_type":[0,0,0,0,0,0,0,0,0,0,0,0,0],"sum_hessian":[8.53E2,7.81E2,7.2E1,7.71E2,1E1,5E0,6.7E1,7.56E2,1.5E1,6E0,4E0,5.3E1,1.4E1],"tree_param":{"num_deleted":"0","num_feature":"11","num_nodes":"13","size_leaf_vector":"0"}},{"base_weights":[5.29142E-4,-4.5129685E-3,2.3601955E-1,5.419945E-3,-2.8319523E-1,6.07993E-1,-5.4277695E-4,-3.2628207E-3,1.1777776E0,-6.6023344E-1,2.0075378E-1,-6.130676E-1,3.3370972E-1],"categories":[],"categories_nodes":[],"categories_segments":[],"categories_sizes":[],"default_left":[true,true,true,true,true,false,true,false,false,false,false,false,false],"id":62,"left_children":[1,3,5,7,9,-1,11,-1,-1,-1,-1,-1,-1],"loss_changes":[1.019583E0,2.3325994E0,1.5848982E0,8.307664E0,5.689184E0,0E0,3.4800913E0,0E0,0E0,0E0,0E0,0E0,0E0],"parents":[2147483647,0,0,1,1,2,2,3,3,4,4,6,6],"right_children":[2,4,6,8,10,-1,12,-1,-1,-1,-1,-1,-1],"split_conditions":[3.0722223E2,2.1833334E2,3.261111E2,2.0722223E2,6.45E1,1.823979E-1,1.0395E4,-9.788462E-4,3.533333E-1,-1.9807003E-1,6.0226135E-2,-1.839203E-1,1.0011292E-1],"split_indices":[9,9,9,9,0,0,1,0,0,0,0,0,0],"split_type":[0,0,0,0,0,0,0,0,0,0,0,0,0],"sum_hessian":[8.53E2,8.38E2,1.5E1,8.12E2,2.6E1,4E0,1.1E1,8.09E2,3E0,1.4E1,1.2E1,3E0,8E0],"tree_param":{"num_deleted":"0","num_feature":"11","num_nodes":"13","size_leaf_vector":"0"}},{"base_weights":[1.4675161E-3,-8.064392E-3,9.296656E-2,3.2265943E-3,-2.344509E-1,-1.1241775E-2,3.9231062E-1,1.5383826E-2,-1.074693E-1,-2.7945678E-4,-7.878708E-1,1.4767911E-2,-2.7304938E-2,-6.535175E-2,6.890302E-1],"categories":[],"categories_nodes":[],"categories_segments":[],"categories_sizes":[],"default_left":[true,true,true,true,true,true,true,false,false,false,false,true,true,false,false],"id":63,"left_children":[1,3,5,7,9,-1,13,-1,-1,-1,-1,-1,-1,-1,-1],"loss_changes":[7.488185E-1,1.9909364E0,2.5399566E0,1.006202E0,4.79436E0,2.7530972E-2,2.9868326E0,0E0,0E0,0E0,0E0,0E0,0E0,0E0,0E0],"parents":[2147483647,0,0,1,1,2,2,3,3,4,4,5,5,6,6],"right_children":[2,4,6,8,10,-1,14,-1,-1,-1,-1,-1,-1,-1,-1],"split_conditions":[8.55E1,8.15E1,8.493E3,1.3555554E2,6.111111E0,-3.3725325E-3,2.5E0,4.615148E-3,-3.224079E-2,-8.383704E-5,-2.3636125E-1,4.4303737E-3,-8.191482E-3,-1.9605525E-2,2.0670906E-1],"split_indices":[0,0,1,9,9,7,7,0,0,0,0,2147483647,2147483647,0,0],"split_type":[0,0,0,0,0,0,0,0,0,0,0,0,0,0,0],"sum_hessian":[8.53E2,7.75E2,7.8E1,7.41E2,3.4E1,6E1,1.8E1,6.7E2,7.1E1,2.6E1,8E0,2.3E1,3.7E1,8E0,1E1],"tree_param":{"num_deleted":"2","num_feature":"11","num_nodes":"15","size_leaf_vector":"0"}},{"base_weights":[7.4534735E-4,-5.1687662E-3,1.8290484E-1,1.2493267E-3,-8.893509E-1,-1.7278817E-1,4.2262807E-1,-5.015817E-3,8.631261E-1,-7.452011E-1,4.6442032E-1,8.099747E-1,-9.150696E-2],"categories":[],"categories_nodes":[],"categories_segments":[],"categories_sizes":[],"default_left":[true,true,true,true,false,true,true,false,false,false,false,false,false],"id":64,"left_children":[1,3,5,7,-1,9,11,-1,-1,-1,-1,-1,-1],"loss_changes":[9.250152E-1,4.724736E0,2.5213082E0,4.489407E0,0E0,5.779962E0,3.6078792E0,0E0,0E0,0E0,0E0,0E0,0E0],"parents":[2147483647,0,0,1,1,2,2,3,3,5,5,6,6],"right_children":[2,4,6,8,-1,10,12,-1,-1,-1,-1,-1,-1],"split_conditions":[2.783333E2,2.661111E2,1.5E0,2.588889E2,-2.668053E-1,1.0404E4,1.0071E4,-1.5047452E-3,2.5893784E-1,-2.2356035E-1,1.393261E-1,2.4299242E-1,-2.7452089E-2],"split_indices":[9,9,7,9,0,1,1,0,0,0,0,0,0],"split_type":[0,0,0,0,0,0,0,0,0,0,0,0,0],"sum_hessian":[8.53E2,8.29E2,2.4E1,8.26E2,3E0,1E1,1.4E1,8.23E2,3E0,5E0,5E0,7E0,7E0],"tree_param":{"num_deleted":"0","num_feature":"11","num_nodes":"13","size_leaf_vector":"0"}},{"base_weights":[9.4947877E-4,-3.358954E-3,2.020908E-1,4.2992085E-3,-2.1823226E-1,5.502886E-1,-1.53132845E-2,-3.2069834E-3,1.0179876E0,-1.0182978E0,-8.421091E-3,3.033253E-1,-5.918274E-1],"categories":[],"categories_nodes":[],"categories_segments":[],"categories_sizes":[],"default_left":[true,true,true,true,true,false,true,false,false,false,false,false,false],"id":65,"left_children":[1,3,5,7,9,-1,11,-1,-1,-1,-1,-1,-1],"loss_changes":[7.4384934E-1,1.3867092E0,1.3878734E0,6.2110796E0,4.842293E0,0E0,3.1103435E0,0E0,0E0,0E0,0E0,0E0,0E0],"parents":[2147483647,0,0,1,1,2,2,3,3,4,4,6,6],"right_children":[2,4,6,8,10,-1,12,-1,-1,-1,-1,-1,-1],"split_conditions":[3.0722223E2,2.1833334E2,5E-1,2.0722223E2,2.2722223E2,1.650866E-1,3.8222223E2,-9.6209504E-4,3.053963E-1,-3.0548936E-1,-2.5263275E-3,9.099759E-2,-1.7754823E-1],"split_indices":[9,9,7,9,9,0,9,0,0,0,0,0,0],"split_type":[0,0,0,0,0,0,0,0,0,0,0,0,0],"sum_hessian":[8.53E2,8.38E2,1.5E1,8.12E2,2.6E1,4E0,1.1E1,8.09E2,3E0,3E0,2.3E1,8E0,3E0],"tree_param":{"num_deleted":"0","num_feature":"11","num_nodes":"13","size_leaf_vector":"0"}},{"base_weights":[9.2731253E-4,-1.6113643E-2,4.313898E-2,5.8675967E-3,-1.5076171E-1,5.950065E-1,-1.6039064E-2,-1.0394585E-2,1.428585E0,2.0994313E-1,-4.2306578E-1,-9.82344E-3,1.2022923E0,-4.087903E-1,2.4674728E-4],"categories":[],"categories_nodes":[],"categories_segments":[],"categories_sizes":[],"default_left":[true,true,true,true,true,true,true,false,false,false,false,false,false,false,false],"id":66,"left_children":[1,3,5,7,9,11,13,-1,-1,-1,-1,-1,-1,-1,-1],"loss_changes":[6.1782944E-1,1.8140094E0,8.095265E0,1.2283752E1,8.713499E0,8.850744E0,1.4458601E0,0E0,0E0,0E0,0E0,0E0,0E0,0E0,0E0],"parents":[2147483647,0,0,1,1,2,2,3,3,4,4,5,5,6,6],"right_children":[2,4,6,8,10,12,14,-1,-1,-1,-1,-1,-1,-1,-1],"split_conditions":[8.5E0,1.1E2,3.65E1,1.03888885E2,6.1E1,3.3333333E0,1.5E0,-3.1183758E-3,4.2857555E-1,6.298294E-2,-1.2691975E-1,-2.947032E-3,3.606877E-1,-1.2263709E-1,7.402419E-5],"split_indices":[4,9,5,9,0,9,6,0,0,0,0,0,0,0,0],"split_type":[0,0,0,0,0,0,0,0,0,0,0,0,0,0,0],"sum_hessian":[8.53E2,6.09E2,2.44E2,5.26E2,8.3E1,2.1E1,2.23E2,5.23E2,3E0,3.6E1,4.7E1,1.2E1,9E0,6E0,2.17E2],"tree_param":{"num_deleted":"0","num_feature":"11","num_nodes":"15","size_leaf_vector":"0"}},{"base_weights":[2.7403214E-3,-7.7070547E-3,9.654963E-2,2.9225496E-3,-3.7096164E-1,6.316131E-1,-7.190857E-3,-7.2916523E-3,8.50862E-1,-5.255076E-2,-7.372894E-1,8.749237E-2,1.138237E0,7.165387E-1,-1.01277724E-1],"categories":[],"categories_nodes":[],"categories_segments":[],"categories_sizes":[],"default_left":[true,true,true,true,true,true,true,false,false,false,false,false,false,false,false],"id":67,"left_children":[1,3,5,7,9,11,13,-1,-1,-1,-1,-1,-1,-1,-1],"loss_changes":[8.411647E-1,2.9880006E0,4.787291E0,6.549025E0,2.4499052E0,3.560543E0,5.324717E0,0E0,0E0,0E0,0E0,0E0,0E0,0E0,0E0],"parents":[2147483647,0,0,1,1,2,2,3,3,4,4,5,5,6,6],"right_children":[2,4,6,8,10,12,14,-1,-1,-1,-1,-1,-1,-1,-1],"split_conditions":[9.363E3,9.243E3,1.45E1,9.198E3,3.5E0,4.5E0,9.417E3,-2.1874958E-3,2.5525862E-1,-1.576523E-2,-2.2118683E-1,2.6247712E-2,3.414711E-1,2.1496163E-1,-3.0383319E-2],"split_indices":[1,1,5,1,7,6,1,0,0,0,0,0,0,0,0],"split_type":[0,0,0,0,0,0,0,0,0,0,0,0,0,0,0],"sum_hessian":[8.53E2,7.7E2,8.3E1,7.51E2,1.9E1,1.1E1,7.2E1,7.45E2,6E0,1.2E1,7E0,7E0,4E0,6E0,6.6E1],"tree_param":{"num_deleted":"0","num_feature":"11","num_nodes":"15","size_leaf_vector":"0"}},{"base_weights":[3.910424E-3,2.5969932E-6,2.7876028E-1,3.3430515E-3,-4.698893E-1,-2.1295166E-1,6.044731E-1,-1.152491E-3,4.2081368E-1],"categories":[],"categories_nodes":[],"categories_segments":[],"categories_sizes":[],"default_left":[true,true,true,true,false,false,false,false,false],"id":68,"left_children":[1,3,5,7,-1,-1,-1,-1,-1],"loss_changes":[9.19398E-1,1.3342084E0,2.3080533E0,1.5854378E0,0E0,0E0,0E0,0E0,0E0],"parents":[2147483647,0,0,1,1,2,2,3,3],"right_children":[2,4,6,8,-1,-1,-1,-1,-1],"split_conditions":[1.0434E4,3.488889E2,2.35E1,3.0222223E2,-1.409668E-1,-6.38855E-2,1.8134195E-1,-3.457473E-4,1.2624411E-1],"split_indices":[1,9,5,9,0,0,0,0,0],"split_type":[0,0,0,0,0,0,0,0,0],"sum_hessian":[8.53E2,8.44E2,9E0,8.41E2,3E0,4E0,5E0,8.35E2,6E0],"tree_param":{"num_deleted":"0","num_feature":"11","num_nodes":"9","size_leaf_vector":"0"}},{"base_weights":[3.0962448E-3,-4.3963976E-4,2.1584865E-1,5.672444E-3,-2.4107651E-1,6.083069E-1,-5.708729E-2,-2.9702836E-3,3.9461008E-1,8.824158E-2,-9.375305E-1,-2.0481364E-1,7.5115204E-2],"categories":[],"categories_nodes":[],"categories_segments":[],"categories_sizes":[],"default_left":[true,true,true,true,true,false,true,false,false,false,false,true,true],"id":69,"left_children":[1,3,5,7,9,-1,-1,-1,-1,-1,-1,-1,-1],"loss_changes":[6.44226E-1,1.2469223E0,1.6038034E0,2.783462E0,5.0646405E0,0E0,2.6098156E-1,0E0,0E0,0E0,0E0,0E0,0E0],"parents":[2147483647,0,0,1,1,2,2,3,3,4,4,6,6],"right_children":[2,4,6,8,10,-1,-1,-1,-1,-1,-1,-1,-1],"split_conditions":[1.0395E4,9.906E3,5.8E1,9.648E3,2.85E1,1.8249208E-1,-1.7126188E-2,-8.9108513E-4,1.1838303E-1,2.6472474E-2,-2.8125918E-1,-6.1444096E-2,2.2534562E-2],"split_indices":[1,1,0,1,5,0,5,0,0,0,0,2147483647,2147483647],"split_type":[0,0,0,0,0,0,0,0,0,0,0,0,0],"sum_hessian":[8.53E2,8.42E2,1.1E1,8.24E2,1.8E1,3E0,8E0,8.09E2,1.5E1,1.4E1,4E0,3E0,5E0],"tree_param":{"num_deleted":"2","num_feature":"11","num_nodes":"13","size_leaf_vector":"0"}},{"base_weights":[2.265695E-3,-3.8748295E-3,1.1318991E-1,1.1417664E-2,-7.774192E-2,-1.1134844E-2,5.5166703E-1,-2.8539298E-3,1.0716383E0,-1.3156427E0,-1.2311542E-2,5.0842855E-4,-7.3486514E-2],"categories":[],"categories_nodes":[],"categories_segments":[],"categories_sizes":[],"default_left":[true,true,true,true,true,true,false,false,false,false,false,true,true],"id":70,"left_children":[1,3,5,7,9,-1,-1,-1,-1,-1,-1,-1,-1],"loss_changes":[5.843655E-1,9.2216706E-1,2.4715383E0,1.0252888E1,1.1290892E1,2.7699234E-2,0E0,0E0,0E0,0E0,0E0,0E0,0E0],"parents":[2147483647,0,0,1,1,2,2,3,3,4,4,5,5],"right_children":[2,4,6,8,10,-1,-1,-1,-1,-1,-1,-1,-1],"split_conditions":[2.95E1,5.888889E1,7.333333E1,5.3888885E1,6.277778E1,-3.3404534E-3,1.6550012E-1,-8.56179E-4,3.214915E-1,-3.9469284E-1,-3.6934628E-3,1.5252858E-4,-2.2045955E-2],"split_indices":[6,9,9,9,9,1,0,0,0,0,0,2147483647,2147483647],"split_type":[0,0,0,0,0,0,0,0,0,0,0,0,0],"sum_hessian":[8.53E2,8.11E2,4.2E1,6.74E2,1.37E2,3.5E1,7E0,6.68E2,6E0,4E0,1.33E2,3.2E1,3E0],"tree_param":{"num_deleted":"2","num_feature":"11","num_nodes":"13","size_leaf_vector":"0"}},{"base_weights":[1.8816794E-3,-1.1672075E-3,1.9985962E-1,1.6815437E-3,-4.0083313E-1,5.28935E-1,-1.2270779E-1,-1.8450392E-3,3.704605E-1,1.6443888E-2,-2.0050557E-1],"categories":[],"categories_nodes":[],"categories_segments":[],"categories_sizes":[],"default_left":[true,true,true,true,false,false,true,false,false,true,true],"id":71,"left_children":[1,3,5,7,-1,-1,-1,-1,-1,-1,-1],"loss_changes":[5.1739204E-1,9.652343E-1,1.5746504E0,1.0983969E0,0E0,0E0,1.07322514E-1,0E0,0E0,0E0,0E0],"parents":[2147483647,0,0,1,1,2,2,3,3,6,6],"right_children":[2,4,6,8,-1,-1,-1,-1,-1,-1,-1],"split_conditions":[1.0407E4,3.488889E2,1.0551E4,3.0666666E2,-1.2024994E-1,1.5868051E-1,-3.681234E-2,-5.535118E-4,1.1113816E-1,4.9331663E-3,-6.0151674E-2],"split_indices":[1,9,1,9,0,0,7,0,0,2147483647,2147483647],"split_type":[0,0,0,0,0,0,0,0,0,0,0],"sum_hessian":[8.53E2,8.43E2,1E1,8.4E2,3E0,4E0,6E0,8.35E2,5E0,3E0,3E0],"tree_param":{"num_deleted":"2","num_feature":"11","num_nodes":"11","size_leaf_vector":"0"}},{"base_weights":[1.7101243E-3,-2.5849935E-2,2.2454066E-2,1.8489446E-2,-1.3638508E-1,-1.9427085E-2,1.8637337E-1,-8.660628E-2,2.4041884E-2,-2.1424621E-1,3.4175497E-1,-8.483938E-2,-1.6339248E-2,2.8011072E-1,-2.0627338E-1],"categories":[],"categories_nodes":[],"categories_segments":[],"categories_sizes":[],"default_left":[true,true,true,true,true,true,true,true,true,false,false,true,true,false,false],"id":72,"left_children":[1,3,5,-1,9,-1,13,-1,-1,-1,-1,-1,-1,-1,-1],"loss_changes":[4.9112016E-1,1.8160561E0,3.3747754E0,1.614675E-1,4.165883E0,7.5220495E-2,3.853904E0,0E0,0E0,0E0,0E0,0E0,0E0,0E0,0E0],"parents":[2147483647,0,0,1,1,2,2,3,3,4,4,5,5,6,6],"right_children":[2,4,6,-1,10,-1,14,-1,-1,-1,-1,-1,-1,-1,-1],"split_conditions":[2.5E0,3.3333335E0,3.3333335E0,5.5468343E-3,2.55E1,-5.828126E-3,1.95E1,-2.5981884E-2,7.2125653E-3,-6.4273864E-2,1.0252649E-1,-2.5451815E-2,-4.9017747E-3,8.403322E-2,-6.1882015E-2],"split_indices":[7,9,9,6,6,6,6,2147483647,2147483647,0,0,2147483647,2147483647,0,0],"split_type":[0,0,0,0,0,0,0,0,0,0,0,0,0,0,0],"sum_hessian":[8.53E2,3.66E2,4.87E2,2.63E2,1.03E2,3.9E2,9.7E1,1.1E1,2.52E2,9E1,1.3E1,1.4E1,3.76E2,7.9E1,1.8E1],"tree_param":{"num_deleted":"4","num_feature":"11","num_nodes":"15","size_leaf_vector":"0"}},{"base_weights":[1.4078058E-3,-7.3072184E-3,7.869258E-2,-2.5043637E-3,-3.7253344E-1,4.605469E-3,2.969583E-1,3.5228826E-2,-2.6021866E-2,1.9242504E-3,-6.23134E-1,2.326984E-2,-7.869387E-3,8.491076E-3,5.3522485E-1],"categories":[],"categories_nodes":[],"categories_segments":[],"categories_sizes":[],"default_left":[true,true,true,true,true,true,true,false,false,false,false,true,true,false,false],"id":73,"left_children":[1,3,5,7,9,-1,13,-1,-1,-1,-1,-1,-1,-1,-1],"loss_changes":[5.7827413E-1,1.3513883E0,1.402746E0,6.816038E-1,9.419904E-1,1.6382162E-2,1.4984722E0,0E0,0E0,0E0,0E0,0E0,0E0,0E0,0E0],"parents":[2147483647,0,0,1,1,2,2,3,3,4,4,5,5,6,6],"right_children":[2,4,6,8,10,-1,14,-1,-1,-1,-1,-1,-1,-1,-1],"split_conditions":[8.45E1,8.35E1,1.1111112E0,1.95E1,6.843E3,1.3816407E-3,2.5E0,1.0568649E-2,-7.80656E-3,5.772751E-4,-1.8694021E-1,6.9809523E-3,-2.360816E-3,2.5473228E-3,1.6056746E-1],"split_indices":[0,0,9,5,1,7,7,0,0,0,0,2147483647,2147483647,0,0],"split_type":[0,0,0,0,0,0,0,0,0,0,0,0,0,0,0],"sum_hessian":[8.53E2,7.69E2,8.4E1,7.62E2,7E0,6.5E1,1.9E1,2.92E2,4.7E2,4E0,3E0,2.5E1,4E1,1E1,9E0],"tree_param":{"num_deleted":"2","num_feature":"11","num_nodes":"15","size_leaf_vector":"0"}},{"base_weights":[9.187862E-4,-3.0997407E-3,1.611459E-1,7.6350267E-4,-5.391846E-1,2.7539062E-1,-1.8536814E-1,-3.317451E-3,5.66274E-1,-5.6480408E-2,4.277903E-1],"categories":[],"categories_nodes":[],"categories_segments":[],"categories_sizes":[],"default_left":[true,true,true,true,false,true,false,false,false,false,false],"id":74,"left_children":[1,3,5,7,-1,9,-1,-1,-1,-1,-1],"loss_changes":[5.526572E-1,1.7367549E0,9.844814E-1,1.9326674E0,0E0,9.322951E-1,0E0,0E0,0E0,0E0,0E0],"parents":[2147483647,0,0,1,1,2,2,3,3,5,5],"right_children":[2,4,6,8,-1,10,-1,-1,-1,-1,-1],"split_conditions":[3.0222223E2,2.8944446E2,2.5E0,2.783333E2,-1.6175538E-1,2.35E1,-5.5610444E-2,-9.952354E-4,1.6988221E-1,-1.6944123E-2,1.283371E-1],"split_indices":[9,9,7,9,0,5,0,0,0,0,0],"split_type":[0,0,0,0,0,0,0,0,0,0,0],"sum_hessian":[8.53E2,8.35E2,1.8E1,8.32E2,3E0,1.4E1,4E0,8.29E2,3E0,5E0,9E0],"tree_param":{"num_deleted":"0","num_feature":"11","num_nodes":"11","size_leaf_vector":"0"}},{"base_weights":[8.632535E-4,-1.7065131E-3,2.1877746E-1,1.3888293E-3,-4.3729654E-1,-1.5512957E-1,5.456136E-1,-2.1447248E-3,2.7020264E-1],"categories":[],"categories_nodes":[],"categories_segments":[],"categories_sizes":[],"default_left":[true,true,true,true,false,false,false,false,false],"id":75,"left_children":[1,3,5,7,-1,-1,-1,-1,-1],"loss_changes":[4.8047036E-1,1.1465291E0,1.4759858E0,8.05327E-1,0E0,0E0,0E0,0E0,0E0],"parents":[2147483647,0,0,1,1,2,2,3,3],"right_children":[2,4,6,8,-1,-1,-1,-1,-1],"split_conditions":[1.0506E4,3.6055554E2,2.35E1,3.0222223E2,-1.3118897E-1,-4.653887E-2,1.6368409E-1,-6.434175E-4,8.10608E-2],"split_indices":[1,9,5,9,0,0,0,0,0],"split_type":[0,0,0,0,0,0,0,0,0],"sum_hessian":[8.53E2,8.46E2,7E0,8.43E2,3E0,4E0,3E0,8.35E2,8E0],"tree_param":{"num_deleted":"0","num_feature":"11","num_nodes":"9","size_leaf_vector":"0"}},{"base_weights":[8.366456E-4,8.806933E-3,-7.68054E-2,1.8760687E-3,6.7606544E-1,-5.470904E-1,1.3824899E-2,-2.6122646E-3,5.776889E-1,1.4011492E-1,-8.9921993E-1,-7.293798E-2,5.562836E-1],"categories":[],"categories_nodes":[],"categories_segments":[],"categories_sizes":[],"default_left":[true,true,true,true,false,true,true,false,false,false,false,false,false],"id":76,"left_children":[1,3,5,7,-1,9,11,-1,-1,-1,-1,-1,-1],"loss_changes":[5.317472E-1,3.5988193E0,3.432456E0,2.0048835E0,0E0,3.5237913E0,3.416292E0,0E0,0E0,0E0,0E0,0E0,0E0],"parents":[2147483647,0,0,1,1,2,2,3,3,5,5,6,6],"right_children":[2,4,6,8,-1,10,12,-1,-1,-1,-1,-1,-1],"split_conditions":[1.3555554E2,1.26666664E2,1.5666666E2,9.648E3,2.0281965E-1,6.2E1,4.5E0,-7.836794E-4,1.7330667E-1,4.2034477E-2,-2.69766E-1,-2.1881394E-2,1.6688508E-1],"split_indices":[9,9,9,1,0,0,7,0,0,0,0,0,0],"split_type":[0,0,0,0,0,0,0,0,0,0,0,0,0],"sum_hessian":[8.53E2,7.76E2,7.7E1,7.71E2,5E0,1E1,6.7E1,7.68E2,3E0,4E0,6E0,6E1,7E0],"tree_param":{"num_deleted":"0","num_feature":"11","num_nodes":"13","size_leaf_vector":"0"}},{"base_weights":[1.6111302E-3,-1.3454732E-3,1.7971802E-1,6.0974024E-3,-1.8503964E-1,5.097249E-1,-4.929976E-2,-2.2118678E-4,8.581645E-1,1.9015262E-1,-5.717181E-1,7.181549E-2,-1.8613689E-1],"categories":[],"categories_nodes":[],"categories_segments":[],"categories_sizes":[],"default_left":[true,true,true,true,true,false,true,false,false,false,false,true,true],"id":77,"left_children":[1,3,5,7,9,-1,-1,-1,-1,-1,-1,-1,-1],"loss_changes":[4.5148766E-1,1.1586797E0,1.1334723E0,4.388417E0,5.11374E0,0E0,2.2240622E-1,0E0,0E0,0E0,0E0,0E0,0E0],"parents":[2147483647,0,0,1,1,2,2,3,3,4,4,6,6],"right_children":[2,4,6,8,10,-1,-1,-1,-1,-1,-1,-1,-1],"split_conditions":[1.0395E4,2.1833334E2,5.8E1,2.0722223E2,2.75E1,1.5291747E-1,-1.4789929E-2,-6.6356035E-5,2.5744936E-1,5.7045788E-2,-1.7151543E-1,2.1544648E-2,-5.584107E-2],"split_indices":[1,9,0,9,5,0,4,0,0,0,0,2147483647,2147483647],"split_type":[0,0,0,0,0,0,0,0,0,0,0,0,0],"sum_hessian":[8.53E2,8.42E2,1.1E1,8.12E2,3E1,3E0,8E0,8.09E2,3E0,1.6E1,1.4E1,5E0,3E0],"tree_param":{"num_deleted":"2","num_feature":"11","num_nodes":"13","size_leaf_vector":"0"}},{"base_weights":[2.1125807E-3,-1.1737297E-2,3.640322E-2,6.9308826E-3,-1.2615886E-1,6.2389547E-1,1.1469334E-2,-4.6442966E-3,1.0182228E0,-1.0730768E0,-5.3147007E-2,1.0825049E0,-2.230965E-1,-3.215883E-1,2.4132201E-2],"categories":[],"categories_nodes":[],"categories_segments":[],"categories_sizes":[],"default_left":[true,true,true,true,true,true,true,false,false,false,false,false,false,false,false],"id":78,"left_children":[1,3,5,7,9,11,13,-1,-1,-1,-1,-1,-1,-1,-1],"loss_changes":[4.0781432E-1,1.3098812E0,3.5967035E0,6.2065997E0,5.7746253E0,4.608894E0,1.0354735E0,0E0,0E0,0E0,0E0,0E0,0E0,0E0,0E0],"parents":[2147483647,0,0,1,1,2,2,3,3,4,4,5,5,6,6],"right_children":[2,4,6,8,10,12,14,-1,-1,-1,-1,-1,-1,-1,-1],"split_conditions":[8.5E0,1.1E2,3.55E1,1.03888885E2,1.1333333E2,2.5E0,1.5E0,-1.3932891E-3,3.0546686E-1,-3.2192308E-1,-1.5944103E-2,3.2475147E-1,-6.692895E-2,-9.6476495E-2,7.2396607E-3],"split_indices":[4,9,5,9,9,6,6,0,0,0,0,0,0,0,0],"split_type":[0,0,0,0,0,0,0,0,0,0,0,0,0,0,0],"sum_hessian":[8.53E2,6.09E2,2.44E2,5.26E2,8.3E1,7E0,2.37E2,5.23E2,3E0,3E0,8E1,4E0,3E0,6E0,2.31E2],"tree_param":{"num_deleted":"0","num_feature":"11","num_nodes":"15","size_leaf_vector":"0"}},{"base_weights":[1.9510068E-3,-2.0942474E-3,1.2638798E-1,1.9011488E-3,-5.530777E-1,2.4024366E-1,-3.0187553E-1,-2.4344942E-3,5.978241E-1,5.227911E-1,-1.5006511E-2],"categories":[],"categories_nodes":[],"categories_segments":[],"categories_sizes":[],"default_left":[true,true,true,true,false,true,false,false,false,false,false],"id":79,"left_children":[1,3,5,7,-1,9,-1,-1,-1,-1,-1],"loss_changes":[4.3168667E-1,1.8347169E0,1.5340974E0,2.1462612E0,0E0,1.6823021E0,0E0,0E0,0E0,0E0,0E0],"parents":[2147483647,0,0,1,1,2,2,3,3,5,5],"right_children":[2,4,6,8,-1,10,-1,-1,-1,-1,-1],"split_conditions":[2.783333E2,2.661111E2,8.5E0,2.588889E2,-1.6592331E-1,1.0071E4,-9.0562664E-2,-7.303483E-4,1.7934723E-1,1.5683733E-1,-4.5019533E-3],"split_indices":[9,9,6,9,0,1,0,0,0,0,0],"split_type":[0,0,0,0,0,0,0,0,0,0,0],"sum_hessian":[8.53E2,8.29E2,2.4E1,8.26E2,3E0,2E1,4E0,8.23E2,3E0,8E0,1.2E1],"tree_param":{"num_deleted":"0","num_feature":"11","num_nodes":"11","size_leaf_vector":"0"}},{"base_weights":[1.6271763E-3,-1.4981303E-3,1.8991306E-1,5.6955847E-3,-1.790249E-1,3.4492633E-1,-1.8923442E-1,-2.2452317E-4,6.891414E-1,-9.011917E-1,-1.6689045E-2,7.7052526E-2,4.6497455E-1],"categories":[],"categories_nodes":[],"categories_segments":[],"categories_sizes":[],"default_left":[true,true,true,true,true,true,false,false,false,false,false,true,true],"id":80,"left_children":[1,3,5,7,9,-1,-1,-1,-1,-1,-1,-1,-1],"loss_changes":[5.0456774E-1,1.0821891E0,1.0186361E0,3.2980137E0,3.8235874E0,2.4625313E-1,0E0,0E0,0E0,0E0,0E0,0E0,0E0],"parents":[2147483647,0,0,1,1,2,2,3,3,4,4,5,5],"right_children":[2,4,6,8,10,-1,-1,-1,-1,-1,-1,-1,-1],"split_conditions":[1.0395E4,2.1833334E2,2.5E0,2.0277777E2,2.2722223E2,1.034779E-1,-5.677033E-2,-6.735695E-5,2.0674242E-1,-2.7035752E-1,-5.006714E-3,2.3115758E-2,1.3949238E-1],"split_indices":[1,9,7,9,9,1,0,0,0,0,0,2147483647,2147483647],"split_type":[0,0,0,0,0,0,0,0,0,0,0,0,0],"sum_hessian":[8.53E2,8.42E2,1.1E1,8.12E2,3E1,8E0,3E0,8.08E2,4E0,3E0,2.7E1,4E0,4E0],"tree_param":{"num_deleted":"2","num_feature":"11","num_nodes":"13","size_leaf_vector":"0"}},{"base_weights":[1.0617287E-3,1.0950327E-2,-4.646515E-2,1.5325851E-3,9.5744926E-1,-9.769869E-1,6.566801E-3,9.611437E-3,-5.122597E-1,3.0895656E-1,-3.611067E-2],"categories":[],"categories_nodes":[],"categories_segments":[],"categories_sizes":[],"default_left":[true,true,true,true,false,false,true,false,false,false,false],"id":81,"left_children":[1,3,5,7,-1,-1,9,-1,-1,-1,-1],"loss_changes":[4.0382436E-1,6.3333683E0,7.32266E0,2.9494236E0,0E0,0E0,1.8789178E0,0E0,0E0,0E0,0E0],"parents":[2147483647,0,0,1,1,2,2,3,3,6,6],"right_children":[2,4,6,8,-1,-1,10,-1,-1,-1,-1],"split_conditions":[5.888889E1,5.5555557E1,6.5E1,4.111111E1,2.8723478E-1,-2.9309607E-1,1.45E1,2.8834313E-3,-1.5367793E-1,9.268697E-2,-1.0833201E-2],"split_indices":[9,9,9,9,0,0,5,0,0,0,0],"split_type":[0,0,0,0,0,0,0,0,0,0,0],"sum_hessian":[8.53E2,7.08E2,1.45E2,7.04E2,4E0,5E0,1.4E2,6.96E2,8E0,1.5E1,1.25E2],"tree_param":{"num_deleted":"0","num_feature":"11","num_nodes":"11","size_leaf_vector":"0"}},{"base_weights":[4.8112439E-4,-6.1169034E-3,6.3836955E-2,1.3990913E-2,-4.9258497E-2,-2.0483912E-3,2.6509452E-1,-3.9655445E-3,2.1888767E-1,-4.6731567E-4,-2.4244355E-1,3.581574E-3,-5.8262173E-2,-6.149316E-2,3.862557E-1],"categories":[],"categories_nodes":[],"categories_segments":[],"categories_sizes":[],"default_left":[true,true,true,true,true,true,true,false,false,false,false,true,true,false,false],"id":82,"left_children":[1,3,5,7,9,-1,13,-1,-1,-1,-1,-1,-1,-1,-1],"loss_changes":[3.589996E-1,6.769695E-1,1.0756829E0,1.9636283E0,2.3372405E0,2.0880837E-2,8.6265135E-1,0E0,0E0,0E0,0E0,0E0,0E0,0E0,0E0],"parents":[2147483647,0,0,1,1,2,2,3,3,4,4,5,5,6,6],"right_children":[2,4,6,8,10,-1,14,-1,-1,-1,-1,-1,-1,-1,-1],"split_conditions":[8.55E1,6.85E1,1.1111112E0,6.65E1,3.3333332E1,-6.1451737E-4,1.5E0,-1.1896634E-3,6.56663E-2,-1.4019471E-4,-7.273307E-2,1.0744722E-3,-1.7478652E-2,-1.8447949E-2,1.1587672E-1],"split_indices":[0,0,9,0,9,1,7,0,0,0,0,2147483647,2147483647,0,0],"split_type":[0,0,0,0,0,0,0,0,0,0,0,0,0,0,0],"sum_hessian":[8.53E2,7.75E2,7.8E1,5.3E2,2.45E2,6.1E1,1.7E1,4.9E2,4E1,1.98E2,4.7E1,5.8E1,3E0,5E0,1.2E1],"tree_param":{"num_deleted":"2","num_feature":"11","num_nodes":"15","size_leaf_vector":"0"}},{"base_weights":[6.467242E-4,-1.7873009E-3,2.0710143E-1,8.490535E-4,-3.7261963E-1,-1.3089861E-1,4.9788412E-1,-1.6418337E-3,3.0010334E-1],"categories":[],"categories_nodes":[],"categories_segments":[],"categories_sizes":[],"default_left":[true,true,true,true,false,false,false,false,false],"id":83,"left_children":[1,3,5,7,-1,-1,-1,-1,-1],"loss_changes":[4.3126413E-1,8.309701E-1,1.1783626E0,6.3209385E-1,0E0,0E0,0E0,0E0,0E0],"parents":[2147483647,0,0,1,1,2,2,3,3],"right_children":[2,4,6,8,-1,-1,-1,-1,-1],"split_conditions":[1.0506E4,3.6055554E2,2.35E1,1.0269E4,-1.11785896E-1,-3.9269585E-2,1.4936525E-1,-4.9255014E-4,9.0031005E-2],"split_indices":[1,9,5,1,0,0,0,0,0],"split_type":[0,0,0,0,0,0,0,0,0],"sum_hessian":[8.53E2,8.46E2,7E0,8.43E2,3E0,4E0,3E0,8.39E2,4E0],"tree_param":{"num_deleted":"0","num_feature":"11","num_nodes":"9","size_leaf_vector":"0"}},{"base_weights":[7.605435E-4,-1.7622982E-3,1.5286909E-1,4.3695853E-3,-1.5304103E-1,4.2474875E-1,-3.7120473E-2,-4.3636773E-4,6.5259045E-1,1.3638707E-1,-4.4951224E-1,7.6919556E-2,-1.706136E-1],"categories":[],"categories_nodes":[],"categories_segments":[],"categories_sizes":[],"default_left":[true,true,true,true,true,false,true,false,false,false,false,true,true],"id":84,"left_children":[1,3,5,7,9,-1,-1,-1,-1,-1,-1,-1,-1],"loss_changes":[3.292946E-1,7.858481E-1,7.704608E-1,2.5398393E0,3.0155575E0,0E0,2.0682974E-1,0E0,0E0,0E0,0E0,0E0,0E0],"parents":[2147483647,0,0,1,1,2,2,3,3,4,4,6,6],"right_children":[2,4,6,8,10,-1,-1,-1,-1,-1,-1,-1,-1],"split_conditions":[1.0395E4,2.1833334E2,5.8E1,2.0722223E2,2.75E1,1.2742463E-1,-1.1136143E-2,-1.3091032E-4,1.9577715E-1,4.0916122E-2,-1.3485368E-1,2.3075867E-2,-5.1184084E-2],"split_indices":[1,9,0,9,5,0,4,0,0,0,0,2147483647,2147483647],"split_type":[0,0,0,0,0,0,0,0,0,0,0,0,0],"sum_hessian":[8.53E2,8.42E2,1.1E1,8.12E2,3E1,3E0,8E0,8.09E2,3E0,1.6E1,1.4E1,5E0,3E0],"tree_param":{"num_deleted":"2","num_feature":"11","num_nodes":"13","size_leaf_vector":"0"}},{"base_weights":[1.2967183E-3,-5.6190616E-3,6.1086163E-2,1.8314414E-3,-3.0039918E-1,4.0207782E-1,-4.235163E-2,-4.4962196E-3,5.271199E-1,2.2874117E-1,-5.3839386E-1,-1.2831879E-2,6.1228234E-1,-4.4217378E-1,6.145154E-2],"categories":[],"categories_nodes":[],"categories_segments":[],"categories_sizes":[],"default_left":[true,true,true,true,true,true,true,false,false,false,false,false,false,false,false],"id":85,"left_children":[1,3,5,7,9,11,13,-1,-1,-1,-1,-1,-1,-1,-1],"loss_changes":[3.5497776E-1,1.6927708E0,3.1902425E0,2.513291E0,2.762177E0,1.8551042E0,3.028216E0,0E0,0E0,0E0,0E0,0E0,0E0,0E0,0E0],"parents":[2147483647,0,0,1,1,2,2,3,3,4,4,5,5,6,6],"right_children":[2,4,6,8,10,12,14,-1,-1,-1,-1,-1,-1,-1,-1],"split_conditions":[9.351E3,9.243E3,1.1E2,9.198E3,1.5E0,6.45E1,1.6222223E2,-1.3488659E-3,1.5813597E-1,6.862235E-2,-1.6151816E-1,-3.849564E-3,1.836847E-1,-1.3265213E-1,1.8435463E-2],"split_indices":[1,1,9,1,7,0,9,0,0,0,0,0,0,0,0],"split_type":[0,0,0,0,0,0,0,0,0,0,0,0,0,0,0],"sum_hessian":[8.53E2,7.67E2,8.6E1,7.51E2,1.6E1,1.8E1,6.8E1,7.45E2,6E0,5E0,1.1E1,7E0,1.1E1,1.2E1,5.6E1],"tree_param":{"num_deleted":"0","num_feature":"11","num_nodes":"15","size_leaf_vector":"0"}},{"base_weights":[1.3617672E-3,-4.3149475E-2,8.936454E-3,7.1452092E-3,-3.0826837E-1,1.2011026E-2,-3.701172E-1,-4.164113E-2,2.9547438E-1,-7.774895E-1,1.23809814E-1,4.9514244E-3,2.7577853E-1],"categories":[],"categories_nodes":[],"categories_segments":[],"categories_sizes":[],"default_left":[true,true,true,true,true,true,false,false,false,false,false,false,false],"id":86,"left_children":[1,3,5,7,9,11,-1,-1,-1,-1,-1,-1,-1],"loss_changes":[2.897647E-1,1.6733667E0,8.687605E-1,1.5560964E0,4.343587E0,1.3570938E0,0E0,0E0,0E0,0E0,0E0,0E0,0E0],"parents":[2147483647,0,0,1,1,2,2,3,3,4,4,5,5],"right_children":[2,4,6,8,10,12,-1,-1,-1,-1,-1,-1,-1],"split_conditions":[5E-1,1.3333333E2,3.8222223E2,9.03E3,9.528E3,2.7277777E2,-1.1103516E-1,-1.249234E-2,8.8642314E-2,-2.3324685E-1,3.7142947E-2,1.4854274E-3,8.2733564E-2],"split_indices":[7,9,9,1,1,9,0,0,0,0,0,0,0],"split_type":[0,0,0,0,0,0,0,0,0,0,0,0,0],"sum_hessian":[8.53E2,1.22E2,7.31E2,1.05E2,1.7E1,7.28E2,3E0,9.2E1,1.3E1,7E0,1E1,7.12E2,1.6E1],"tree_param":{"num_deleted":"0","num_feature":"11","num_nodes":"13","size_leaf_vector":"0"}},{"base_weights":[4.390022E-4,4.711691E-3,-1.1002445E-1,-1.102034E-3,2.6619E-1,-1.8103501E-1,2.8820547E-1,-7.0110983E-3,2.941885E-1,-2.755973E-1,7.8229904E-1,-4.2534813E-1,1.4711079E-2],"categories":[],"categories_nodes":[],"categories_segments":[],"categories_sizes":[],"default_left":[true,true,true,true,true,true,false,false,false,false,false,false,false],"id":87,"left_children":[1,3,5,7,9,11,-1,-1,-1,-1,-1,-1,-1],"loss_changes":[4.055666E-1,1.2580547E0,1.0614387E0,1.4230392E0,5.679982E0,1.405649E0,0E0,0E0,0E0,0E0,0E0,0E0,0E0],"parents":[2147483647,0,0,1,1,2,2,3,3,4,4,5,5],"right_children":[2,4,6,8,10,12,-1,-1,-1,-1,-1,-1,-1],"split_conditions":[9.906E3,9.648E3,3.5E0,2.0277777E2,5.5E0,1.0137E4,8.646165E-2,-2.1033296E-3,8.825655E-2,-8.26792E-2,2.3468973E-1,-1.2760444E-1,4.413324E-3],"split_indices":[1,1,7,9,6,1,0,0,0,0,0,0,0],"split_type":[0,0,0,0,0,0,0,0,0,0,0,0,0],"sum_hessian":[8.53E2,8.24E2,2.9E1,8.09E2,1.5E1,2.6E1,3E0,7.96E2,1.3E1,8E0,7E0,1E1,1.6E1],"tree_param":{"num_deleted":"0","num_feature":"11","num_nodes":"13","size_leaf_vector":"0"}},{"base_weights":[1.0131955E-3,7.1716704E-3,-7.426171E-2,1.0365159E-3,6.095619E-1,-8.1735736E-1,1.2440835E-3,6.919395E-3,-5.758743E-1,3.8900417E-1,-6.1141152E-2],"categories":[],"categories_nodes":[],"categories_segments":[],"categories_sizes":[],"default_left":[true,true,true,true,false,false,true,false,false,false,false],"id":88,"left_children":[1,3,5,7,-1,-1,9,-1,-1,-1,-1],"loss_changes":[3.9842105E-1,2.9325356E0,3.6500723E0,2.6897388E0,0E0,0E0,1.5711637E0,0E0,0E0,0E0,0E0],"parents":[2147483647,0,0,1,1,2,2,3,3,6,6],"right_children":[2,4,6,8,-1,-1,10,-1,-1,-1,-1],"split_conditions":[1.6666666E2,1.5666666E2,1.7222223E2,1.4888889E2,1.8286858E-1,-2.4520722E-1,1.8611111E2,2.0758186E-3,-1.727623E-1,1.1670125E-1,-1.8342346E-2],"split_indices":[9,9,9,9,0,0,9,0,0,0,0],"split_type":[0,0,0,0,0,0,0,0,0,0,0],"sum_hessian":[8.53E2,7.91E2,6.2E1,7.86E2,5E0,3E0,5.9E1,7.81E2,5E0,6E0,5.3E1],"tree_param":{"num_deleted":"0","num_feature":"11","num_nodes":"11","size_leaf_vector":"0"}},{"base_weights":[2.3732866E-4,5.066319E-3,-5.8761597E-2,-1.2087583E-3,5.527954E-1,-6.94753E-1,5.6292624E-3,1.9657277E-3,-4.1593298E-1,7.825673E-1,4.6625774E-2,5.475748E-2,-4.0384564E-1],"categories":[],"categories_nodes":[],"categories_segments":[],"categories_sizes":[],"default_left":[true,true,true,true,true,false,true,false,false,false,false,false,false],"id":89,"left_children":[1,3,5,7,9,-1,11,-1,-1,-1,-1,-1,-1],"loss_changes":[2.4477199E-1,2.7310162E0,2.6736152E0,1.0398834E0,9.37269E-1,0E0,1.3135805E0,0E0,0E0,0E0,0E0,0E0,0E0],"parents":[2147483647,0,0,1,1,2,2,3,3,4,4,6,6],"right_children":[2,4,6,8,10,-1,12,-1,-1,-1,-1,-1,-1],"split_conditions":[1.6666666E2,9.648E3,1.7222223E2,9.594E3,1.95E1,-2.0842591E-1,2.1E1,5.8971834E-4,-1.247799E-1,2.3477021E-1,1.3987733E-2,1.6427245E-2,-1.211537E-1],"split_indices":[9,1,9,1,5,0,6,0,0,0,0,0,0],"split_type":[0,0,0,0,0,0,0,0,0,0,0,0,0],"sum_hessian":[8.53E2,7.91E2,6.2E1,7.85E2,6E0,3E0,5.9E1,7.82E2,3E0,3E0,3E0,5.5E1,4E0],"tree_param":{"num_deleted":"0","num_feature":"11","num_nodes":"13","size_leaf_vector":"0"}},{"base_weights":[-4.9486E-4,3.93935E-3,-8.259478E-2,1.5390218E-4,5.1426697E-1,-7.0504E-1,1.4538277E-2,-5.5743135E-3,3.0562794E-1,4.6405983E-1,-8.6566925E-2],"categories":[],"categories_nodes":[],"categories_segments":[],"categories_sizes":[],"default_left":[true,true,true,true,false,false,true,false,false,false,false],"id":90,"left_children":[1,3,5,7,-1,-1,9,-1,-1,-1,-1],"loss_changes":[3.1260148E-1,1.5741948E0,2.6909904E0,1.4259658E0,0E0,0E0,1.9839244E0,0E0,0E0,0E0,0E0],"parents":[2147483647,0,0,1,1,2,2,3,3,6,6],"right_children":[2,4,6,8,-1,-1,10,-1,-1,-1,-1],"split_conditions":[2.1833334E2,2.0722223E2,2.2722223E2,9.648E3,1.542801E-1,-2.11512E-1,9.459E3,-1.6722941E-3,9.168839E-2,1.3921796E-1,-2.5970079E-2],"split_indices":[9,9,9,1,0,0,1,0,0,0,0],"split_type":[0,0,0,0,0,0,0,0,0,0,0],"sum_hessian":[8.53E2,8.12E2,4.1E1,8.09E2,3E0,3E0,3.8E1,7.97E2,1.2E1,5E0,3.3E1],"tree_param":{"num_deleted":"0","num_feature":"11","num_nodes":"11","size_leaf_vector":"0"}},{"base_weights":[1.6540628E-4,9.01315E-3,-4.2342983E-2,4.998248E-4,6.728859E-1,-6.134633E-1,1.694689E-2,7.050818E-3,-5.084606E-1,-8.5320824E-1,-2.616028E-1,5.802078E-1,-1.7575294E-2],"categories":[],"categories_nodes":[],"categories_segments":[],"categories_sizes":[],"default_left":[true,true,true,true,false,true,true,false,false,false,false,false,false],"id":91,"left_children":[1,3,5,7,-1,9,11,-1,-1,-1,-1,-1,-1],"loss_changes":[3.230894E-1,4.0173955E0,5.0427136E0,2.3613634E0,0E0,5.1138973E-1,2.6945567E0,0E0,0E0,0E0,0E0,0E0,0E0],"parents":[2147483647,0,0,1,1,2,2,3,3,5,5,6,6],"right_children":[2,4,6,8,-1,10,12,-1,-1,-1,-1,-1,-1],"split_conditions":[5.888889E1,5.3888885E1,6.944444E1,4.111111E1,2.0186578E-1,6.277778E1,7.277778E1,2.1152454E-3,-1.5253818E-1,-2.559625E-1,-7.848084E-2,1.7406236E-1,-5.272588E-3],"split_indices":[9,9,9,9,0,9,9,0,0,0,0,0,0],"split_type":[0,0,0,0,0,0,0,0,0,0,0,0,0],"sum_hessian":[8.53E2,7.08E2,1.45E2,7.02E2,6E0,1.1E1,1.34E2,6.96E2,6E0,4E0,7E0,5E0,1.29E2],"tree_param":{"num_deleted":"0","num_feature":"11","num_nodes":"13","size_leaf_vector":"0"}},{"base_weights":[-2.8388927E-4,-6.4113913E-3,5.4098677E-2,1.793616E-2,-3.4571134E-2,-2.9747023E-3,2.0428814E-1,-1.5033199E-2,1.3617948E-1,3.3166423E-3,-1.9984248E-1,2.1586766E-2,-1.8551739E-2,5.906984E-1,6.470119E-2],"categories":[],"categories_nodes":[],"categories_segments":[],"categories_sizes":[],"default_left":[true,true,true,true,true,true,true,false,false,false,false,true,true,false,false],"id":92,"left_children":[1,3,5,7,9,-1,13,-1,-1,-1,-1,-1,-1,-1,-1],"loss_changes":[2.8628483E-1,5.3115946E-1,7.4757135E-1,1.6278788E0,2.2499616E0,2.6452681E-2,1.1798513E0,0E0,0E0,0E0,0E0,0E0,0E0,0E0,0E0],"parents":[2147483647,0,0,1,1,2,2,3,3,4,4,5,5,6,6],"right_children":[2,4,6,8,10,-1,14,-1,-1,-1,-1,-1,-1,-1,-1],"split_conditions":[8.45E1,6.35E1,8.517E3,2.5E1,5.888889E1,-8.924107E-4,1.727E3,-4.50996E-3,4.0853843E-2,9.949927E-4,-5.9952747E-2,6.47603E-3,-5.565522E-3,1.7720953E-1,1.9410359E-2],"split_indices":[0,0,1,9,9,7,2,0,0,0,0,2147483647,2147483647,0,0],"split_type":[0,0,0,0,0,0,0,0,0,0,0,0,0,0,0],"sum_hessian":[8.53E2,7.69E2,8.4E1,4.13E2,3.56E2,6.3E1,2.1E1,3.25E2,8.8E1,2.92E2,6.4E1,2.4E1,3.9E1,3E0,1.8E1],"tree_param":{"num_deleted":"2","num_feature":"11","num_nodes":"15","size_leaf_vector":"0"}},{"base_weights":[4.0807517E-4,3.3501764E-3,-9.778939E-2,1.3641647E-1,-1.0977747E-3,-1.8306823E-1,4.0363077E-2,2.4740447E-1,-2.8672263E-1,1.7286403E-3,-3.807017E-1,-1.2713909E-2,-2.3667453E-1,9.5486395E-2,-2.3005975E-2],"categories":[],"categories_nodes":[],"categories_segments":[],"categories_sizes":[],"default_left":[true,true,true,true,true,true,true,false,false,false,false,true,true,true,true],"id":93,"left_children":[1,3,5,7,9,-1,-1,-1,-1,-1,-1,-1,-1,-1,-1],"loss_changes":[2.4828713E-1,4.9407083E-1,3.167047E-1,1.4808202E0,8.710381E-1,1.370858E-1,4.8507623E-2,0E0,0E0,0E0,0E0,0E0,0E0,0E0,0E0],"parents":[2147483647,0,0,1,1,2,2,3,3,4,4,5,5,6,6],"right_children":[2,4,6,8,10,-1,-1,-1,-1,-1,-1,-1,-1,-1,-1],"split_conditions":[5E-1,1.5E0,1.65E1,1.05E1,3.6055554E2,-5.4920472E-2,1.2108924E-2,7.422134E-2,-8.601679E-2,5.1859213E-4,-1.1421051E-1,-3.814173E-3,-7.1002364E-2,2.864592E-2,-6.9017927E-3],"split_indices":[10,6,6,4,9,1,7,0,0,0,0,2147483647,2147483647,2147483647,2147483647],"split_type":[0,0,0,0,0,0,0,0,0,0,0,0,0,0,0],"sum_hessian":[8.53E2,8.31E2,2.2E1,2.4E1,8.07E2,1.3E1,9E0,2E1,4E0,8.04E2,3E0,4E0,9E0,4E0,5E0],"tree_param":{"num_deleted":"4","num_feature":"11","num_nodes":"15","size_leaf_vector":"0"}},{"base_weights":[-3.042077E-4,-2.6016089E-3,1.0708618E-1,4.3177826E-4,-3.1861496E-1,2.1142578E-1,-1.4748709E-1,-2.477585E-3,3.4604535E-1,-9.885951E-2,3.6519775E-1],"categories":[],"categories_nodes":[],"categories_segments":[],"categories_sizes":[],"default_left":[true,true,true,true,false,true,false,false,false,false,false],"id":94,"left_children":[1,3,5,7,-1,9,-1,-1,-1,-1,-1],"loss_changes":[2.1202709E-1,8.0658764E-1,5.7166505E-1,8.4318304E-1,0E0,7.7629435E-1,0E0,0E0,0E0,0E0,0E0],"parents":[2147483647,0,0,1,1,2,2,3,3,5,5],"right_children":[2,4,6,8,-1,10,-1,-1,-1,-1,-1],"split_conditions":[3.0722223E2,2.9555554E2,2.5E0,2.783333E2,-9.558449E-2,5.2E1,-4.424613E-2,-7.4327557E-4,1.0381361E-1,-2.9657854E-2,1.0955933E-1],"split_indices":[9,9,7,9,0,0,0,0,0,0,0],"split_type":[0,0,0,0,0,0,0,0,0,0,0],"sum_hessian":[8.53E2,8.38E2,1.5E1,8.33E2,5E0,1.1E1,4E0,8.29E2,4E0,4E0,7E0],"tree_param":{"num_deleted":"0","num_feature":"11","num_nodes":"11","size_leaf_vector":"0"}},{"base_weights":[-6.1641E-5,3.809268E-3,-7.175723E-2,4.7563473E-4,4.5305634E-1,-6.124344E-1,1.2616785E-2,-4.683866E-3,2.7555388E-1,4.1641745E-1,-5.2137274E-2],"categories":[],"categories_nodes":[],"categories_segments":[],"categories_sizes":[],"default_left":[true,true,true,true,false,false,true,false,false,false,false],"id":95,"left_children":[1,3,5,7,-1,-1,9,-1,-1,-1,-1],"loss_changes":[2.3838323E-1,1.2199179E0,2.0304215E0,1.1563164E0,0E0,0E0,1.1371896E0,0E0,0E0,0E0,0E0],"parents":[2147483647,0,0,1,1,2,2,3,3,6,6],"right_children":[2,4,6,8,-1,-1,10,-1,-1,-1,-1],"split_conditions":[2.1833334E2,2.0722223E2,2.2722223E2,9.648E3,1.359169E-1,-1.8373032E-1,9.42E3,-1.40516E-3,8.2666166E-2,1.2492524E-1,-1.5641183E-2],"split_indices":[9,9,9,1,0,0,1,0,0,0,0],"split_type":[0,0,0,0,0,0,0,0,0,0,0],"sum_hessian":[8.53E2,8.12E2,4.1E1,8.09E2,3E0,3E0,3.8E1,7.97E2,1.2E1,3E0,3.5E1],"tree_param":{"num_deleted":"0","num_feature":"11","num_nodes":"11","size_leaf_vector":"0"}},{"base_weights":[4.5724318E-4,5.305596E-3,-5.878836E-2,7.9180935E-4,4.4848824E-1,-5.730718E-1,-6.1743953E-3,5.5099954E-3,-4.6188736E-1,-1.5569595E-1,1.14788055E-1],"categories":[],"categories_nodes":[],"categories_segments":[],"categories_sizes":[],"default_left":[true,true,true,true,false,false,true,false,false,false,false],"id":96,"left_children":[1,3,5,7,-1,-1,9,-1,-1,-1,-1],"loss_changes":[2.4681623E-1,1.5872778E0,1.7481867E0,1.7300271E0,0E0,0E0,1.1749786E0,0E0,0E0,0E0,0E0],